,0,1,2,3,4,5,6,7,8,9,10,11,12,13,14,15,16,17,18,19,20,21,22,23,24,25,26,27,28,29,30,31,32,33,34,35,36,37,38,39,40,41,42,43,44,45,46,47,48,49,50,51,52,53,54,55,56,57,58,59,60,61,62,63,64,65,66,67,68,69,70,71,72,73,74,75,76,77,78,79,80,81,82,83,84,85,86,87,88,89,90,91,92,93,94,95,96,97,98,99
membership,-0.37049633,0.65649533,-0.0013755612,0.0048832605,-0.8592591,1.3375415,0.9553386,0.8132736,1.4291499,-0.1498729,-1.7504529,-2.7671547,0.45059565,1.263204,0.8015327,-0.83088905,0.7779138,-0.9329028,-0.1152849,0.22876886,-0.22478692,0.48802313,-0.18735145,0.4915929,-0.27638468,1.6269224,0.2396492,-0.8831014,0.044415914,-0.46554065,0.03229512,-0.103368215,0.050271753,-1.495979,1.1208042,-0.93537354,-0.2790656,0.8496115,-0.5706807,-1.5907494,0.55116695,0.27429417,1.4121768,-1.580532,-0.16906366,-1.3414086,-1.0754498,-0.1601834,0.6630218,-1.1036013,-0.15239727,-0.027217107,-1.0246263,-0.67813224,0.65599597,-1.6818485,-0.55133146,-2.5209925,0.101962335,-0.21115263,-0.6830382,-0.66595376,0.85844326,1.4953208,0.42466548,0.95915633,-0.41666147,-1.1275748,-0.2541422,-1.3176774,0.47080147,1.5499452,1.4834934,0.25061753,-0.061094604,0.9465137,-0.013804838,-1.5755247,-0.732457,0.06255491,-0.30790555,0.40027007,1.2326038,-1.5043483,1.3499377,-0.32983276,1.0582377,1.7024395,0.97519594,1.8328991,1.7963958,-1.4863802,1.2892193,0.021311756,0.9477897,2.0127726,0.78600216,-0.5102817,1.0716501,-2.196079
benefits,0.37419206,1.7009565,1.5974253,-1.0436784,-0.79571843,0.75183153,-1.1456319,0.5701675,0.9355186,-0.19720894,0.28951794,-0.60932183,-0.80528384,0.7083108,1.6421653,-0.81444335,0.44401932,1.2558439,-0.047227316,-1.1163452,-1.2593195,-0.54139644,-0.66532886,0.6210611,-0.7337688,-1.1745051,-1.1868167,-0.20571917,1.7599194,-1.4523312,0.069212414,-1.1574618,-1.0178444,-0.31156895,-0.82984054,0.1576877,0.8365233,1.8731755,-1.7325739,-0.50688356,0.9829965,1.48829,0.16210915,-0.2705961,-1.2326314,-0.19129802,-2.6079252,0.21730752,-0.54895157,0.41449466,-0.765752,-1.996708,-1.3051292,0.9462271,1.4822896,0.3795934,-1.5416738,0.08597388,0.39111978,0.38018104,0.26006266,-0.17548046,1.2722138,-0.35204086,0.8960387,0.688932,-0.38932788,0.63639563,-1.2430881,-0.4228275,-0.28105783,-0.6907142,0.2085352,-1.1481872,0.930042,1.9153541,0.9112987,-1.467354,-1.0735378,1.272497,1.4205824,0.89113426,1.435012,-1.1781383,-0.17332847,-1.6230115,-0.953632,0.6040612,0.61148393,1.6351947,1.1086977,-1.4765577,0.36228955,0.5028689,0.9889282,0.9353101,2.7963576,-0.4660173,0.9472491,1.0762107
stanford,2.051837,0.4034929,-1.7602257,-1.1260567,-1.0364336,-2.0966394,0.985686,-0.1939893,2.1329753,0.08590423,1.2196211,-0.5046848,-1.9571346,2.4798772,-2.3087323,0.8696852,-0.11064543,2.0519192,1.4591445,-0.43367273,-2.0121493,-0.48690528,-0.03454985,1.0044186,2.4465926,-0.3039752,1.0287483,-1.9897791,-1.0027558,-0.73089314,-1.1850394,-0.3160689,-0.54880387,-0.0032943748,1.1871585,0.89056957,3.0806546,0.34692556,-0.9809536,-0.060908053,-0.5221336,1.4605228,1.182111,-1.5599228,0.3128212,-0.31633544,-0.3314472,-0.75822085,-1.045081,1.7536176,0.24925333,-2.0931108,0.83977586,1.6646789,-0.0341451,-2.0187266,-0.28860354,0.52150077,2.1758294,-0.8103737,-1.4643824,0.621311,3.0262103,-2.2342029,-0.68958074,1.4169341,0.29256192,0.4141643,2.224917,-1.2411618,-1.246539,1.0463338,0.015258914,-2.815091,1.1436034,0.25042242,1.0040594,-0.23466511,0.39624986,0.3632478,-0.5039214,-2.438988,-0.28370044,-0.12084202,-0.18705706,-1.107606,-0.070864074,0.6034029,0.6302085,0.4018268,0.67539674,1.5754061,0.66730213,-0.3905503,0.71753997,-1.2370577,-1.740912,1.3935529,0.30938312,-0.27485102
alumni,-0.8687134,0.078914136,-0.7846734,1.1743686,-0.6256163,0.2757098,0.41367126,0.3626352,0.47541487,-0.91683483,-1.4304137,0.6556008,0.57266486,-0.36448422,-0.9014203,1.1002086,1.9329956,-0.40661067,1.2309701,0.45148227,-0.6801565,-0.28702486,-0.33357692,-0.05468611,-0.57264054,-1.0190134,-0.11414519,-1.3700911,0.6492208,-0.16676031,1.5079664,1.9329106,0.9439919,0.62654114,-0.49388763,2.2245064,1.1447961,-0.48464075,-1.4926655,-0.44831502,-1.5460232,-0.9186256,-0.621474,-0.345353,-0.14271088,-0.6380626,0.9231333,0.18577956,-0.84222,0.22095521,-0.4986071,0.36938608,0.8786952,0.4984734,0.62627685,0.01375415,-0.8430434,-0.9483565,0.4929936,2.2022486,-0.47508404,0.64252174,-0.55103207,-0.6186822,-0.12480887,-0.056405917,-0.1364927,0.0014810911,1.9507114,-1.5145046,1.8315357,-0.59864366,0.44558626,-0.7291173,-1.3397813,0.08631464,-0.7761945,-2.0304348,-0.2300807,0.6442221,-1.6658089,-1.7239789,-0.38563532,-0.25359634,1.6654131,-0.20842196,-0.28749034,0.6204577,-0.45411435,0.26652467,0.5241962,0.20198964,-0.7123219,0.29290548,-0.25937286,0.37985736,0.60755163,1.2106874,0.8552367,0.19133876
association,0.5461492,0.1559986,-0.18412112,-1.2533803,0.10898195,-0.0862635,-1.7595664,-1.514121,-1.2235848,-1.1325413,-0.33667514,-1.0613011,1.2508,0.26168615,-0.96342653,-1.3967241,-1.0972112,-0.84691685,-0.0722733,0.3558834,-0.65538585,-1.6219493,1.0170664,2.471752,-0.021316562,1.2131364,0.46185732,-0.35301542,1.2425272,0.9369749,1.358918,0.18876395,1.4666644,-0.6966918,1.0896975,-0.5916751,-1.9014298,-0.47048753,0.16441701,-0.27805996,0.0859245,2.882513,-0.012329571,-0.73530495,-0.717224,-0.33464316,0.28952575,1.9524208,-0.14990002,-2.3828154,-0.99427146,0.833722,2.0233002,0.61615473,0.91706306,0.9541252,0.06648513,0.20072082,1.4336575,-0.090025656,-0.6188881,-0.9051095,-0.8261372,-0.015604548,0.1408443,0.602765,0.13258268,1.2848597,1.4418572,-2.2237883,0.105858676,0.408524,-0.18684804,0.16020873,-0.87911695,-0.6824943,-0.56527513,-0.4095045,-0.42958766,0.020911004,-0.828803,-0.20243579,1.2592314,-1.3857278,0.07888091,-0.04028942,-0.25801012,-1.1211388,-0.7776535,-0.8060277,0.9032426,0.9501478,-1.8442302,0.50469106,-1.3302964,-1.3722601,1.496799,-0.52612966,1.0633574,-1.4689883
credit,-0.5901684,0.17456198,-2.2176304,-0.7280937,0.12965201,-2.452914,0.88385797,-1.0144314,-1.1310756,0.9984444,1.537407,-1.2552222,-0.31558907,-0.35253814,-0.77604866,0.27206054,0.9213985,-1.5387224,0.7554099,-1.5260279,0.24554022,2.2607987,-1.3264089,0.7216577,0.55601716,1.1606925,-0.9946571,-0.9031346,0.6162234,-1.1809497,1.377652,0.802108,-2.1844013,0.5278875,-0.40194044,-0.72507626,0.65877426,-1.0538006,-0.80357426,-1.3816038,0.58583313,-1.2433853,-0.08224977,-1.4080033,0.48532665,-0.24427813,-0.36328366,-1.2359904,-0.94587755,0.018681237,-0.20331894,0.7940169,-1.0462497,-1.3593895,1.0520749,0.027350685,-0.14233102,0.4457472,0.5122268,0.567988,0.07014003,0.93547434,-1.5309024,-0.87776464,-0.75474614,-0.3408556,-0.31599656,0.50979835,1.7183058,-0.37348977,1.0307609,1.6159067,1.3390553,-1.7724652,0.73682106,-1.4530629,0.4953312,0.80031157,0.27235556,-1.20716,0.7672664,-2.3457649,-0.9032018,-0.7219889,-1.4839826,-0.016054276,-0.2665139,-0.2555969,0.44161832,1.655342,-0.11581524,1.6627434,-0.7075719,-0.4875757,-0.38423154,1.3379643,0.107021466,1.0508054,0.37464017,-0.6715938
card,1.0675467,-0.7249222,0.16602483,-0.039487742,1.1740632,-1.3853106,-1.1506482,-0.44538796,0.99636674,-1.3935229,-1.1617198,-0.42675847,0.56035477,-0.2742965,0.61538094,0.13393098,-0.17605327,-0.5337888,-1.15349,-0.74071366,0.37373227,-0.56963104,0.08336391,-0.01774373,0.91448855,-0.036436263,0.9394711,0.35959083,1.5600666,-1.1670641,0.76825416,1.436108,1.3982928,-0.488009,0.018110214,-2.3990083,-1.4341087,0.30709133,-0.8598475,1.9326713,1.6720073,-0.573645,1.1281147,-0.42977983,-0.28051126,-0.5099321,-0.6555199,1.5812037,-0.1395146,0.28227308,-0.94825995,0.16184154,-0.25109434,1.4484107,1.2906276,0.445009,0.70927125,-1.6350297,0.08220861,-1.0563982,-1.2027084,-0.9839316,0.7954853,0.55764663,-0.097211145,0.109923266,1.2840242,0.9213629,0.60783714,-0.3883039,0.61023045,-0.2123581,-0.18629427,0.70244634,1.2158645,0.048493337,-0.06602346,-1.9921141,-1.063708,-0.70441324,-0.989056,-0.5024562,-0.6155267,-0.7524107,-3.1509302,0.18780106,2.1608756,-1.3574535,-0.9956603,1.3813376,-0.06660656,-0.6301174,0.66412055,-0.8037288,-1.4394001,-0.13375042,0.5956804,0.31067398,0.4127831,-1.2887323
rewards,1.4076196,-0.43257347,-1.341528,-0.655837,-1.3898314,0.39397216,1.1101984,0.85110104,-0.29666522,-0.799974,0.038849857,-0.5659553,0.92057204,0.87523425,-0.064500764,0.054095604,1.3196287,0.08134806,0.20416184,1.1349058,-1.2973704,-0.39781058,-0.13337496,-0.25325516,-1.1927637,-0.34569642,0.6401289,-1.6541647,0.9510868,0.8628235,1.8243685,1.046834,2.5229006,0.49097055,1.1628437,0.80475074,-0.1059883,0.37252742,0.391017,-1.8735918,-0.0071783164,-0.24692647,1.9197366,0.3716475,0.36873418,-0.6462386,-0.27842286,1.3919332,1.1686538,-0.60280466,-0.9909985,-1.8416994,-2.4019134,-1.0508652,2.2878368,1.5385163,0.9663381,-0.68335056,1.9138119,0.452138,2.1238296,-0.915119,-1.0095941,-0.5900321,0.87413824,-0.69800067,-0.29519528,-0.917557,2.0015383,-0.41479972,-0.20732416,0.397859,-1.3580382,1.0613592,1.287407,-0.37714446,-0.7109022,-0.12608092,0.1570914,-0.6511172,0.813518,-0.2518842,-0.15974039,1.1702852,2.4075947,0.40807903,0.64107525,-0.6769425,0.636038,0.10612205,0.5051151,0.09849044,-1.8659866,0.113285206,-0.34154972,-1.0783232,-0.6482441,-0.43587315,-0.5701124,-0.4269996
visa,1.3207129,0.9509653,0.0492937,0.62394774,-0.04478968,0.644796,0.35966456,-0.014339006,-0.3663204,-0.8349985,-1.0026281,-3.4019198,0.37612873,-0.64664274,-0.49278837,0.44783694,-1.5660458,-0.92073625,0.069635026,1.2975954,1.0971735,0.1773368,-1.3593435,0.5887353,0.17552626,-0.886882,-0.3737132,-0.041405585,-0.34891683,0.2951883,0.47741354,0.31250495,2.5509512,-0.008912329,-2.3444998,0.636544,-1.9538337,1.0222129,0.07873115,-1.7343521,0.81577706,-0.9179379,-0.0019229719,-0.069826186,-0.004921946,-0.44626102,0.13754772,-0.65722454,-0.31205773,-1.5644689,-0.67237055,-1.7228476,-1.1974065,-1.5607802,0.3474198,0.13790073,-0.36110333,0.42296,0.48897,-0.2504163,0.5681389,-0.7740284,-0.5654777,0.5416171,-1.3824085,-0.49260768,0.39046824,-1.0096401,1.8566837,-0.76595646,0.042009458,-0.0018188118,0.5114701,-0.6887445,-1.0502472,-0.7348406,1.1065841,0.71674573,0.11688067,-1.4969888,0.3933036,-0.54658717,-1.320877,-1.0163805,0.4579915,1.4614698,-0.3542565,1.065859,0.97558695,1.066328,-0.031145437,-0.5083865,-1.8825543,-2.0427966,0.5483001,0.71771824,-0.13854082,-0.15656607,-0.45763516,-0.6030479
carry,-1.939528,0.19770971,-0.9288565,-0.113408424,-0.5124539,-0.9967962,-0.06981005,-0.34655336,0.37711614,-0.3262208,-1.4196074,0.005252361,0.43415833,-0.5483038,-1.5644289,0.72279364,-0.6574799,-0.7368867,-0.78428036,0.6212565,0.7689357,-0.8277475,-1.0859759,-0.32283637,0.698838,-0.6967044,-0.73760825,0.25115904,-0.9188998,-1.0656949,0.3401566,-0.008172646,1.2994944,-1.2796378,1.5355769,-0.1482102,0.6800848,0.6309009,-0.84895957,-1.7661918,0.8189063,0.13412704,-0.040389813,0.4544157,-0.062097285,0.32333764,-0.6496825,-0.40465572,2.3904004,-1.6257013,0.38722187,-1.0249329,-0.58874786,-0.5314211,1.6049291,1.5970852,1.399633,-2.0282578,0.96182793,1.1178684,-0.51460165,0.5991266,1.0499038,0.34777248,2.64474,-0.5249647,0.34524888,2.4788506,0.2706191,0.47103304,-0.90469396,-0.41334096,0.4387652,-0.7030143,-0.056091264,0.91565293,-0.1768739,-0.8753187,-0.9989707,-1.6368313,-0.256984,1.121773,0.6474588,-0.7219049,0.043739647,-0.26668862,-0.99635166,-0.313935,-0.6389739,-0.63610107,1.4607875,-0.1313953,-1.5911726,-0.89359987,-0.54056567,-0.2519504,-0.34755555,0.12696901,-0.75503826,-0.15184282
supports,-1.112388,2.5391161,-0.43166763,0.074230075,1.0855539,-0.8110753,-0.4115485,0.19831066,-1.321107,0.7118061,0.500431,0.59356713,-1.559275,-0.8023598,-0.5709981,0.052341048,1.9473778,0.5452658,0.5370267,-0.51710546,-0.07054369,0.8568133,-0.9630129,-1.4018817,0.87837315,-0.753609,-1.281428,-0.7824297,0.032024927,-0.5340599,1.4405508,1.0442487,-0.7445266,-0.012886197,-0.007864072,-1.3859061,-0.47923195,0.232361,0.7411797,-0.25377104,0.25910997,-0.18382138,0.5856821,-0.043729387,0.7543733,0.26194236,0.36088523,0.7269527,-0.107979365,0.011335458,0.9681305,-0.8543549,-0.89323944,0.72329646,-0.19142044,1.5002416,0.21303478,-0.3629344,-0.8278446,1.2680717,-0.3135985,-2.3103228,-0.11260567,2.262647,0.66895926,0.15889275,0.51479524,1.918948,1.384515,0.8056064,0.04641234,2.3703434,-0.990811,0.90005153,0.81113124,-0.41624564,-1.5140721,-0.8065094,0.33375737,-0.017100463,0.39144346,-0.09170858,1.3013866,-0.73790383,-0.1412457,-0.23010269,-0.27512938,-0.294016,-0.012455801,-0.3836801,-0.42008442,-0.18392049,-1.2772447,-0.6174598,-0.6766319,-0.7656934,-0.29375818,0.057571404,2.403213,-0.77401036
cardinal,2.3798783,-1.8717963,-0.07950326,-0.76775306,0.59104514,2.416516,0.10515988,-0.42771873,-0.46308348,-1.9685097,-1.0248203,0.59821457,-0.05376893,0.84203935,0.41853505,-0.32040533,-1.1539335,0.13513842,1.3764056,-1.7923194,-0.78428197,0.9523396,-1.4709617,0.18851854,1.6882917,-0.78785515,0.7718249,-0.33023304,-1.1638979,-2.715697,0.5293359,1.3415334,-0.27497223,-1.6845217,0.8061464,0.68240094,0.44206533,0.09636684,0.47237277,0.7421978,1.6484904,0.6696468,0.052710153,-0.6918495,-0.23672308,-1.2930366,-1.5328459,0.88214785,0.034447957,0.8262524,-0.20777375,-1.2317228,0.47570083,-0.72305244,0.7551044,-1.1646127,0.92886865,0.77298266,0.7243363,1.8265522,0.29392168,0.10576755,0.24720736,-1.0083169,1.0311655,0.23216462,-0.6416051,0.29270718,-0.40256453,-0.103127494,0.6269239,-0.9723757,0.7094827,-0.131659,0.69506407,-0.03092336,1.3411983,-0.880343,-0.074848294,0.7317122,1.1347451,-0.32729644,-1.4411145,0.36346084,0.24932705,-0.9509597,-1.3461984,1.010761,-0.11214771,-0.23736528,-0.06377333,-0.31230187,-0.58229035,0.083727606,-1.2560315,0.5225512,0.22171201,-0.7326564,1.2988442,0.61743486
nights,1.6209975,-0.15677539,0.33370647,0.6831084,-0.87280107,0.6122886,-0.6049314,1.1930358,-2.488512,0.40104765,-1.1771195,-2.2922876,0.120200254,0.052072886,0.71082646,0.18848401,0.5423313,-0.10972666,1.2602472,-0.9184316,1.5406841,0.671238,-1.6535,0.47831255,-0.16802073,-1.1506755,1.0327885,0.6958064,0.9091852,-0.21147045,-1.1278539,-0.634025,-0.6608943,0.5995174,-0.2252756,-0.2627478,0.58428156,-1.3599962,0.16714871,0.36175492,0.5283119,0.31393263,1.4223711,-1.0103782,-1.1840667,-1.2601495,0.039165113,-1.4614117,2.283938,-1.0930703,0.4383061,0.91997665,-0.6218924,0.27039254,-0.63622797,-0.6587468,-0.30099338,1.6432066,-0.6725845,1.367247,0.7610944,-0.13552275,0.8160729,-1.3821145,-1.2119554,-0.082765244,0.32575038,-0.67933,-0.59732723,-0.6276117,-0.7490948,-0.08987887,1.3064141,1.224663,-0.28094947,-0.2646584,-0.042209383,0.18517993,0.6809132,1.4725475,0.005721606,-1.3507468,-0.96633804,0.08634945,0.23008291,-0.6670188,-0.29687592,-0.9160234,-1.5384449,-1.3163648,-0.9501761,1.3346258,-0.4146343,-0.24912328,-0.10188092,1.3195426,0.47527602,0.9076697,-0.75817245,-2.3895528
office,1.1444205,0.86698973,-0.33104375,-0.8904017,0.24684115,-0.015435138,-0.7947292,-0.06384839,-1.3760997,0.28948557,0.73958534,0.74494207,0.4464292,-0.8199603,0.7557988,-1.7970179,0.058758456,0.84311575,-1.1653143,-0.9572912,-1.8334785,-0.5647859,-0.50312483,2.7389627,0.247829,-1.8185425,0.06050828,0.114814475,1.2122858,-1.6100497,1.3789635,-1.7465036,0.38715807,1.8969635,1.9879731,-0.786125,-0.06878251,-0.55767584,1.7870275,-0.06128971,0.6282447,1.0504158,1.743724,1.5742288,-0.5120644,-0.46372026,-0.3515619,-1.1096232,1.859479,1.4288877,-0.15513897,-1.8084441,-1.7072107,-0.5528729,0.78878474,-1.6531181,-0.108225495,-0.037861276,0.93206364,0.22997937,-0.84312874,-2.4550152,-0.81929356,0.5155323,-0.055743035,-0.36728698,-2.223054,0.36741617,0.37364116,-0.46993804,0.5555995,0.29814696,-0.82786787,1.4626875,1.0180966,0.868279,-1.1931593,0.6287284,-0.012141641,-2.3018057,0.96323323,-0.43953732,-0.9278476,-0.8054884,-0.9544671,0.62427753,-1.3171965,-0.26166233,-0.0047145775,0.040995847,1.0292197,0.16397554,-0.58939445,0.69302946,0.68288296,-0.5451147,1.8814019,-1.2267834,0.3847414,0.10643065
alcohol,0.3223032,1.3476266,-2.3983412,1.024895,0.11405199,1.3354988,1.4354296,0.572689,-0.4012452,0.43710858,-0.9256366,0.8093356,0.4050242,-0.0065824096,-0.8001821,0.03757602,0.39949942,0.01586584,-1.361454,1.4674617,-0.8448996,0.70129603,-1.3365684,0.9219348,0.5044507,-0.65716475,2.7083864,0.35050634,-0.30494782,0.8769578,0.018412974,-1.158006,-0.46183544,-0.7314427,0.30237368,-0.19211662,0.22269042,-1.1587002,0.8831344,1.5810909,-0.80791587,0.3805035,-0.6017986,1.1602411,-1.1022786,-0.354324,-2.4126682,-2.3922105,0.11288105,-0.12405039,0.6009732,-0.3134033,1.1346339,0.5323508,-0.8751725,-0.38365987,0.745077,0.8325604,-0.4509181,-0.4306609,-0.6034715,-0.120803095,1.171187,-1.4652529,-0.93425727,-0.47546956,-1.9763076,-2.2312596,-0.6088832,0.34747082,0.28019506,0.053528003,0.5778185,0.41904536,1.1495314,0.49635285,0.12278922,-0.3347747,1.6370169,-0.6358488,0.9743298,-0.46696952,0.8945478,-0.36156738,0.6609168,-0.22154084,-0.8177054,-0.13661605,-0.24533148,0.43813396,-2.6284947,0.034605324,-0.8510347,1.3956407,-0.5195787,-2.0498917,0.055677846,-0.19209285,0.7688198,-0.8373004
policy,0.71722835,-0.20295258,-1.1300282,-0.65689117,0.66035783,-0.057493616,-1.3653486,-0.32557905,-0.06268367,-1.5890812,-1.2545749,0.26547873,-2.164113,1.1253597,0.40226457,0.65708095,-0.72391784,-0.10203013,-1.3940809,0.6667286,-1.5150516,-0.9454096,-1.4354103,-0.38214326,-0.12697995,0.36556593,1.2065119,-0.87857205,0.15031788,1.0228179,-0.09862818,-0.6298496,0.7348192,-1.2497746,-1.9510481,0.6633998,1.0026025,-0.25809968,-0.63457304,0.036127687,1.3179984,0.008061995,2.463355,0.32701728,-0.049980573,-0.56890506,-0.21285878,-0.8221276,1.4690417,-0.27842972,-0.16291071,-0.6767783,0.6568439,0.5873958,-0.06260524,-1.7905922,0.1890287,0.35573387,-0.23078243,-1.8405067,0.13613127,-2.0901325,1.575646,-0.5052131,2.7136054,-1.0734042,0.65443444,-0.92565733,-0.5320419,-1.1135752,0.56920975,0.6790183,0.3585724,-0.49931335,-0.7839257,-1.6975402,-0.07772681,-0.87093824,0.59692216,-0.006961129,2.5410175,-0.52377516,-1.633408,0.49972996,-1.253056,-1.2073423,-1.0984056,-1.2223576,0.79726017,1.0190889,0.035362076,2.022889,-0.42661306,0.8112689,0.53025734,-0.58047,-0.55586404,0.51680404,-0.9609962,0.46966812
education,0.6288333,-0.53918576,-0.76534194,0.4050818,0.5233667,2.4532673,0.9238856,-0.7926447,0.81878865,1.315218,0.3835501,-0.15375535,-2.384457,-0.52867895,0.5888707,-0.67836034,-1.4148062,1.3721648,0.4002728,0.08987884,-3.1958523,-0.024697963,-0.33347324,-0.7296033,1.384196,-0.40741333,-0.6692602,0.16824847,-1.8810784,-0.47009718,-1.0441208,-0.97413516,0.85126567,0.14213979,1.4166751,0.06297473,-2.6500077,0.8493901,-0.122754306,-0.34982127,1.516648,0.8713727,0.5165582,0.17829508,-0.53688514,-1.1906857,-1.9057068,-1.5697793,0.6654183,1.6118407,0.6513614,-2.7567868,-0.3172913,0.053423174,1.2830899,-0.81920916,0.8156437,-1.3616738,0.92131853,-0.43288916,-0.5267619,-0.72373706,-1.3628602,-0.33573228,0.54794705,0.19573289,0.2190881,-1.2127311,0.97106284,0.46030527,-0.5513056,-0.59872484,-1.297865,0.45847252,-0.14447518,0.65879035,-1.9262096,-0.6197076,-1.3066988,-1.9725302,0.61133075,1.8362569,-0.14887688,1.8457631,0.5776365,1.0792267,-0.41878545,-0.13250448,-0.9626127,0.9098807,-0.24475092,0.20023693,-0.119180836,0.4316084,-1.264642,-0.8065279,-3.0371528,1.5258327,-0.40864167,-0.7844364
computer,-1.1436433,-1.7657145,0.5476669,2.2015202,-0.71088946,-1.4664897,-0.4015455,1.1755606,2.0202353,0.28678837,1.3697164,-0.044270985,-0.02897228,3.2245624,0.64691204,0.785813,0.3989831,-0.7713574,0.10256711,-2.1951106,-1.3404423,-0.44404435,-2.1309602,0.50022006,-0.25927907,-0.054033253,3.1091332,0.1179955,0.57723993,-0.24366194,0.74493617,0.79299957,-1.1255789,0.35002774,0.056956187,1.8443718,-0.7953023,-0.8956777,1.0930741,1.1982672,-0.3432011,-1.5507429,-0.05894006,-0.70353144,0.3164115,0.69847137,1.5043211,0.7207167,0.023402907,1.186415,-0.6507478,0.64431787,-0.8094365,0.56670374,1.253576,0.4781669,-0.3689203,-1.2481209,1.8882735,1.666305,-0.30402,-0.8100079,-1.4558336,0.64245266,-0.85857546,-0.40600276,1.1792699,-0.67134255,0.059343763,-0.6617484,1.2175918,0.6297839,-1.0647706,-0.23948191,-1.2287953,-0.33273354,1.728095,0.47236434,0.52158904,-0.28334045,-0.27930495,-0.50706005,-1.4839015,-0.42136252,-2.5623646,0.19552666,0.45836645,-1.0772505,2.6881151,0.25059676,-0.08375858,1.3633785,0.7297544,0.88612187,1.1036143,0.24426405,-0.8385107,1.2963976,-0.45017943,0.9174814
forum,-0.4669222,0.27702218,0.4448103,0.8630683,1.191072,-1.123747,-1.1659429,0.24688059,-0.12250274,0.31957683,-0.18684271,1.3636249,-0.56247663,-1.5328416,-0.20649274,-0.11279924,0.33761498,0.2884925,-1.0630258,-2.1845388,-0.257168,-0.7396682,-1.8101212,0.6108661,0.78564936,0.2115198,0.3371802,1.4753357,-0.46417353,0.94099027,-0.6146489,-1.0165137,-0.3796035,2.284496,0.16762173,0.5697188,-0.378488,0.028674936,0.2734543,-0.54559445,0.84939283,-2.8300674,1.249021,-0.5906667,-1.3445534,-0.02242813,0.072462946,-0.27468175,-0.23348558,0.22777131,-0.50394136,0.8702739,-0.4798259,-0.8223613,-1.4298464,-0.022184426,-1.2376554,1.0707436,1.5438997,0.19841182,-0.9927489,0.32874203,-1.0651155,-0.5086631,0.08563012,-0.26222426,1.2720977,0.40057856,0.56516397,0.038560413,0.47032064,1.1862439,0.19666724,-0.4158914,-1.5650222,-0.85283786,2.3871315,-1.1727629,2.0874255,-0.32862628,0.2999774,1.2684487,-0.37249255,-1.1594884,-0.13263506,1.080493,0.50005895,1.8816901,0.7721452,0.9600448,1.2054818,1.896493,-1.9232018,-0.83250475,0.83813155,0.907869,-1.2249651,0.32470432,0.7237554,-0.005925089
robert,-0.06429987,-1.087183,0.4221656,-0.021832472,0.96678805,0.5106263,-1.3950012,1.6111295,-1.5740479,-1.1996319,-0.16875926,1.3012453,-0.4663563,0.7387191,1.1144139,0.023277674,0.5280411,-0.43810272,1.1306777,1.3320942,-0.72215897,0.7225922,0.081430525,-0.1884433,0.19972758,0.6103899,1.1299984,0.2431078,-0.35498127,1.4611276,1.59662,0.39832166,-0.49223205,-0.9247724,1.3556696,-0.5398822,0.82338846,1.376721,-0.23929265,0.7751742,0.1307157,0.1754068,0.4872379,0.21882266,1.2448949,0.6192118,-1.3565623,-0.856365,1.675411,0.039482817,-1.4120692,0.19695713,0.9083962,-0.53251094,-0.37520438,-0.7838222,-2.4075553,-0.46162283,0.78269607,-0.26341012,0.09797459,0.79144007,-0.64091504,0.31969476,-0.44236082,0.52625376,-0.5782451,1.5302243,0.9520859,0.19303901,2.587626,2.0388374,0.5624958,0.43944624,-1.5095576,-1.2084808,0.68571836,-1.50358,0.73952526,-1.3017913,-0.2701924,0.13258351,0.86412936,-1.1112003,-0.21818367,1.2969042,0.114776075,0.37016445,0.81315696,-0.006462493,1.4122525,-1.8991328,-2.0500343,-1.0197221,-2.1567173,-0.589046,1.3456357,0.53623164,-0.6060181,0.33231905
crown,-2.5086732,-0.54265684,-1.4240669,-0.1915181,0.87539417,0.18668005,0.71766096,0.34421974,-0.6526508,-1.0391828,-0.4963243,0.23954934,-0.3715001,0.18391441,-1.8194188,-0.2359811,0.70589256,0.3057674,-1.5258665,1.295313,0.24163881,0.81174445,1.8072777,-1.3484378,-0.6056874,0.46020338,-0.59169686,1.4055868,1.2236081,0.6220631,-0.44561028,0.62206364,0.87634677,-0.4636745,-0.40302014,0.13495143,-0.9821835,1.4443682,0.4017418,0.06205372,-0.5747825,-1.5595624,1.5634706,-1.0666434,0.34615937,-0.51205766,-0.6207513,0.7356522,1.2284641,-0.007549708,-0.100843854,-0.88223326,0.71610874,-2.3070514,-0.8241385,-0.31925085,-1.1651361,-0.47757342,1.0268708,0.0661213,0.28081098,1.5794232,-1.1192198,1.7849854,-0.9841412,1.2438215,-0.36361647,0.773493,-1.0546191,-0.51263756,1.498718,0.93668514,1.756627,-0.44176286,-0.7023858,0.6000891,0.8042586,0.7671543,-1.8345965,0.24624674,-0.01713598,0.072497495,0.8297808,-0.597655,0.8121381,-0.32875496,0.396515,0.31591827,0.2622349,-0.47653013,-0.124678046,1.2157377,0.2739992,0.013240216,-0.67060876,-0.43972075,1.2812754,0.14515705,-1.0828838,-1.1889884
law,0.1824969,-1.6454421,0.12284312,-1.6765841,0.56378573,1.2938784,-0.92283994,2.302147,-1.5721716,-0.42066947,-0.13603427,-1.1289619,-1.9869534,-0.57334965,-0.13174626,-1.4857804,0.78745633,-0.61109227,-0.5515735,-1.987389,-1.2238522,1.6726415,0.57785493,1.3869328,1.4185301,0.42636898,0.23775502,-0.25047868,-1.1986972,-0.0661286,-0.17228754,-0.17144549,-0.09316453,-0.8222692,-0.121621445,-0.48067933,-0.8329248,-0.7616817,-1.2224114,1.5967128,0.860349,0.54475754,-0.68268454,-0.66410136,0.60648555,-1.194245,0.82810795,-0.6100626,0.48389506,0.33807996,0.2023446,-1.1492974,-0.3649537,0.14175887,0.7918291,-0.46196234,0.44367847,0.26684245,0.5762655,-1.7419682,0.042499807,0.36128297,0.34545243,-0.18636587,-0.09611025,0.22239526,0.3407972,0.5541368,0.99907225,-1.5621359,-0.17104493,0.62540317,1.84686,0.7648238,-0.3508725,-1.1260395,-0.515605,0.13375022,-0.8661798,0.0075928094,0.17443824,-0.17334405,1.7831166,0.29019034,-0.27488622,-0.89394933,0.6660521,-0.307496,0.90141726,1.9924406,0.038627025,-0.5034549,1.0110174,1.9017818,-1.4977273,-0.46848935,-1.1908733,-0.081557244,-2.1166475,-1.3196456
library,-0.16524298,0.31522727,-0.9991577,0.023180787,0.76766974,0.35357484,1.8686051,0.98598045,-1.5007783,-2.947667,0.52226603,-0.26324672,-1.9052403,0.4175958,0.56297135,0.67410094,1.1304601,0.8396405,-0.09109387,-0.067350455,-1.1856112,-0.10848913,-0.01218191,-1.3744321,-1.0577179,-0.5053397,0.12927133,-0.85000116,-0.768742,-0.5495299,0.7447555,0.98223346,-0.19674405,-0.88276803,0.881552,1.1694974,0.0802554,-1.2769006,1.2801713,2.5884228,-0.818165,0.48613217,-0.10908527,-0.6580427,-0.33111018,1.1953709,0.27877656,-0.3833015,0.00135286,0.35377517,0.47923642,-0.70037675,1.1705747,-0.2272724,0.72989845,-0.95940876,-2.3014283,-0.76065534,0.76187956,1.0493419,1.0171429,0.26174372,-0.22587654,1.9735878,0.5710559,0.017004758,-0.60281384,-0.687211,-0.6414254,-1.4792819,0.18696374,0.67060304,0.38152868,0.9582675,0.23023592,-0.021079186,-0.34200945,-0.07087561,0.31952566,-0.5403233,-0.55268884,1.089162,0.511044,0.8720112,-0.32154056,1.1264334,1.4746395,-0.40252566,-0.15220897,0.03858107,0.8426752,-1.1975225,0.9669623,0.46277547,-0.8006317,0.8487947,0.8204193,-0.4939063,-0.3001644,0.12984857
school,-0.61144483,0.18618363,0.51888424,-0.27164885,-0.14322342,0.91425484,-0.38449782,2.3587902,-0.6880715,-0.51416534,-0.4988128,1.1124305,1.4296992,-0.52872735,-0.26006517,-2.8183162,-1.288731,0.5604943,-1.0834761,-0.040583927,-2.9185433,0.54724526,-0.27818143,-0.1306067,0.8785912,0.81613016,1.2739857,-0.22113411,-0.23815145,0.15613307,-0.764793,1.7525384,0.14896476,0.94656944,-1.1008108,0.02577952,-0.117825195,0.103468746,-0.15710747,0.10432525,-0.51048,1.6690063,-0.8408473,-0.23761679,-1.7865433,0.41231292,-1.6790026,-0.87978405,-0.24065763,1.1997689,-0.95099586,0.008366156,1.4485518,1.2446617,-0.63693607,-0.66524017,1.176977,-1.2746906,-1.2023084,0.5365538,0.1820458,-1.2964865,1.301303,-0.0010235446,-0.28433865,-1.493385,-0.17323928,-0.28655666,-1.1797624,-0.025739335,-1.1157488,1.1289662,0.022732569,-0.10144768,-0.8479129,-0.023754906,-0.68556446,0.14901498,0.0836487,-1.2736379,-0.39015317,-0.9589041,-1.0124973,0.47827995,-0.19477977,0.7260357,-0.36787787,-1.3934069,-1.3872738,-0.4278728,1.3887382,0.9773912,0.9760972,-0.28603542,-0.15098713,1.6390629,-0.20216246,-0.19676073,1.7902988,-1.3065192
conference,0.031823356,-0.33204633,0.18034795,-0.25528646,1.6821138,0.16392075,0.76769084,-0.56657434,-1.3659753,-0.82419306,0.7969294,-0.5790977,-0.9646967,0.92926,0.54489225,-0.13471004,0.4538471,0.81497866,-0.40568393,0.62841845,-0.45761684,-1.1962389,0.5940066,-0.26770473,-1.1029059,-0.8386077,-0.09393766,0.46570757,-0.11205644,0.4647835,-0.93862766,-0.3779628,0.09355454,1.8169649,0.43102482,1.3030895,1.6784104,0.4213732,0.0034166533,1.6700379,1.0084546,-2.2693467,1.8816643,-0.2104778,-0.20456818,-0.87190455,-0.083778545,-0.24251437,-0.19771214,-1.2934825,0.33346802,-0.4147796,0.009467075,-1.5729907,1.8761561,-0.1472396,-0.36503768,-0.895829,-0.037977096,-0.33080614,-0.06546704,-0.83990014,-0.88588417,0.11137918,1.1812199,-1.0323453,1.3606064,1.2918366,-0.8339674,-0.86419207,1.9195228,0.6932788,1.8773924,-0.5464349,0.09758731,1.6122898,-0.06646959,0.7309839,0.06660698,-0.14536275,0.6859671,0.7662275,0.3004942,1.389329,1.045112,-0.42490536,-0.4227936,-1.2178216,0.036294013,0.041986533,-0.9681378,-1.0520753,1.8490294,-0.0063703973,0.20961519,-0.4625503,1.2814023,1.8417119,-0.3420429,0.36373702
rooms,-0.30404508,1.0702766,-0.5589293,0.34752178,-0.5491197,-0.16982184,-0.6864956,-1.7784793,-1.3449639,-0.42602903,-0.70814186,0.47923514,-1.5048398,-0.09560643,-2.8037934,1.2413833,-0.20045601,0.6445803,-0.8806828,-0.5522994,-1.4750063,0.997911,0.2628926,-0.5798375,-0.24485913,-1.302443,0.28753874,-0.54678214,0.36518717,2.1711817,1.3853903,0.16125123,0.55550563,-0.444444,0.065931626,0.8998322,-0.38850763,-0.4451859,0.30788878,-0.75446,1.065289,0.93811744,1.4137287,-0.13073774,-0.23548643,0.22322102,-0.08814199,0.03611312,1.282527,-1.7743216,0.9742307,0.6721838,1.5238374,-1.308873,-0.1592716,-0.30552968,0.18584996,-1.5689026,0.43620974,0.5640214,-1.6206561,1.1593568,1.4401066,1.3582296,1.0922523,0.9077848,1.4736714,-0.97731614,-0.006821657,-0.21522085,-0.32671756,0.3190514,0.36153832,-0.29009894,-0.9769369,1.1624357,-1.876096,-0.42974257,0.9791479,-2.6371875,-0.4790434,0.13612024,0.6675695,2.346901,-0.4061854,0.38368776,1.0990233,-0.031598896,-0.9364079,0.22285242,1.7105492,-2.4070354,-0.59943515,0.21730012,0.18938741,1.8856289,-1.1796132,-0.5492293,-1.1262962,-1.1765913
services,-0.9692002,0.36629295,-1.4047533,-0.7307123,-0.69580424,-0.64487034,0.12527552,1.5813023,1.3461235,-0.9294636,-1.0701869,0.14215185,-0.6575093,0.567156,1.5087618,-1.017538,0.80030143,1.5743812,-0.10901249,2.0599918,-1.1204166,-0.5130244,-0.982505,0.17915031,2.1853354,-2.7765324,-0.20415461,-1.0123359,1.486273,1.0659258,0.43447077,0.7324548,-0.2703836,0.78842926,-0.15897155,-0.7371732,-0.088500194,1.2137609,0.99728,0.67346716,0.88309085,-0.72115034,0.19576249,-0.1197911,-1.1072718,-0.56622046,0.21933213,1.1954651,0.4871343,1.2160624,0.95095605,0.6757082,-0.14034316,-0.16615197,1.833914,-0.27245763,-2.2930331,0.20310074,1.9131026,1.0988774,-0.46886885,-0.657742,-0.044819802,-0.21506597,-0.26328126,-0.39067647,0.4733308,1.5352764,0.90324926,-0.7024002,0.39037982,-1.7193189,0.019762088,0.49920514,1.808662,-0.58761066,1.4264678,-0.1654355,-0.10502529,0.5133406,-1.0356828,0.15907335,-0.90819484,1.5384408,0.24571612,-0.03138769,0.5791538,-1.6297243,-0.3282011,-0.018781008,-0.4235743,0.69508755,1.5571834,-0.97276145,-0.81254464,-0.9259011,0.5362693,1.6971029,-0.2927229,-1.7823423
university,0.2920023,-0.060559254,-1.487666,-0.24981073,0.09006657,-0.65087867,-1.0780194,0.58147013,-0.054391168,0.0911055,-0.042506877,0.3184716,-0.3243594,0.24295288,-0.001972997,0.584347,-0.5255871,2.772434,-1.9171544,0.60250133,-1.1065681,1.6629018,-1.9243844,0.79382634,0.7878783,-1.274534,0.9336704,0.37215725,-0.032746077,-2.1433103,0.9041929,1.2554278,-1.2351415,0.44186524,-1.4293844,1.392764,1.4046425,0.36559984,-1.2958417,-0.9074942,-0.640601,0.17740335,0.803976,-0.32998604,1.6550239,1.4619992,0.5658885,0.53882384,-0.815682,0.5038998,-0.7323264,0.25926697,0.09272954,-1.0393938,-0.36194715,-0.5585701,-1.7255688,1.2812126,2.125792,0.39840245,-1.2529066,-0.3215804,-0.3508324,-0.5042016,1.173119,-0.31483254,-1.0248163,-0.36144546,0.19076054,-0.50117385,-0.82132465,-0.6179441,1.1464797,-1.4705327,0.38757843,1.2390759,0.94486773,-0.9983411,0.6659131,-0.8638545,1.2930123,-0.65638775,-2.3582766,0.12842147,0.3121129,0.26421803,-0.50944,-0.48291564,0.14409225,0.39786607,0.5537441,0.5193426,0.22807077,0.48294845,0.9484644,-0.41642013,0.67186904,-0.4449519,1.4296213,-0.7043019
eligibility,-1.3029602,-1.1263247,-0.1558942,0.10170624,-0.005228352,0.54763633,-1.3306553,-0.6784689,-1.8493447,0.7230442,-0.437679,0.45399147,2.2994792,-0.10551303,-1.4838297,0.17267576,-1.003914,0.4636471,0.13804877,0.2539088,0.3246947,-0.18921737,-1.4945626,0.74946016,-1.533747,0.0759174,-1.5963784,-1.7651968,0.94656414,0.26345006,1.3137587,0.94809526,-0.23132877,-0.22278427,-0.4861406,0.10878896,0.6771789,2.5212314,-0.05591319,-0.22375812,-1.248781,-0.4082106,0.7499299,-0.474577,1.1629583,0.0403379,1.2101362,-0.7334127,-0.28094092,-0.61908036,0.86220884,0.33176157,0.6565379,-1.7149973,-0.3133489,-1.0065087,-0.54180795,0.3450308,0.078027174,0.28123793,-0.6430373,0.123042375,1.2099752,0.5500491,0.9735448,-0.2483377,0.15091354,-0.39802969,1.1715453,0.3050675,1.6772648,-0.419004,-0.8613219,0.856913,-0.48884773,0.3897185,-1.3611919,1.3472215,-0.10994252,-0.38429174,-0.8266143,0.13330635,0.5132098,-1.2032009,0.6917867,0.23010133,-1.357788,-0.8088175,0.06440918,0.9110333,0.6337574,0.06944161,0.40962687,-3.022206,-0.12332763,1.7271017,1.4286184,0.31618154,-0.38500413,-0.29532903
guidelines,-0.2810018,0.07260213,-0.4552453,-0.39011487,-1.6268158,0.1191106,-0.6862781,0.37937364,-0.38214263,0.7866868,0.2618354,0.60091084,-0.9294225,-1.162292,-0.101461835,-0.14435878,0.73306316,-1.3388306,0.20714007,0.77582467,1.4717442,-1.0278038,-0.5816648,-0.13353755,0.49917728,-0.5739789,-0.98454684,0.10071015,-0.71114653,0.6227824,-0.503429,0.5875954,1.343641,1.0928217,-0.53475136,0.3697628,0.30837297,0.038006403,-0.21218154,-0.25938752,0.6617224,-0.6055253,-2.6876147,0.1128704,0.35778216,0.043351423,1.0324165,2.0942216,-0.61157054,-0.96466666,0.13626322,-1.1497161,1.5004946,-0.7447779,0.37260422,0.9688549,-0.10234978,1.451404,0.25989765,0.1067832,-0.05777445,1.2137827,1.6752542,-0.5508121,0.39031425,0.7994972,-0.1591859,-0.33378777,1.1392016,0.10942937,-0.065528356,-1.4854013,-0.7807221,-1.1758105,0.7605624,-0.5783444,-1.8612424,2.2089667,-1.4155551,-1.3217543,0.21797179,-1.7032228,1.1561449,1.0492302,-1.5716441,-0.25234777,1.8223481,-0.006734468,-2.1960876,1.5877235,-0.4759499,-0.57227546,0.44428247,0.86234945,-0.060855415,-1.3121911,-0.8313489,-1.2756642,0.17280722,-1.7339689
graduate,0.68832827,-0.27528012,-0.58741426,1.2285278,-0.079208635,0.5916017,-0.6515891,1.1133019,-1.3527766,1.6783429,0.0541139,1.7967169,0.30593604,-0.28899732,0.5224652,0.042877477,0.20481563,-0.5940034,1.7661542,0.9404684,-0.95750034,-0.2427814,-0.1851317,-0.5865955,1.0537156,-1.11779,0.1769591,-1.2388059,0.34169275,-0.878385,-1.0348547,-0.69852734,1.1026647,-0.5412852,-0.6386754,-1.0101417,0.5181412,-1.0630629,0.45122075,-2.216402,-0.8290742,-0.81975716,-0.8836004,0.5104733,0.6740313,-0.70567214,-0.47050554,-0.455967,-1.3023306,0.76217574,-1.4309949,0.015124335,2.6111436,0.8667824,0.04653138,-0.7865584,1.6432713,-1.6383603,1.0971086,-1.25537,0.75392675,0.29414704,0.96443665,-0.28454143,-0.44030908,-0.53230673,1.2733243,-0.31548342,1.0381974,-0.7695626,-0.56891567,-0.09602652,-0.3598546,-1.0563284,-2.5003312,-1.2369286,-0.5560272,0.12171568,-0.69021183,0.2788866,-0.34236664,0.89746666,0.44098976,-0.083651654,0.011433614,0.6507583,0.56068176,-0.4017993,0.08975493,-0.9984446,2.670875,1.318408,-0.32953346,-0.43955827,0.8914903,0.33132908,0.2896526,1.9565159,-0.14637303,0.39564976
research,-0.11805593,-0.9389899,-0.43687555,0.8512976,1.7380997,-1.5486181,-0.939542,1.6578805,-0.7371876,0.94759524,2.7485993,-0.3725284,1.0185217,1.0071441,1.9183558,2.0185142,0.71893734,0.012929514,-1.6776955,0.6161035,-0.24748157,0.82389146,-2.1040561,0.01599021,-0.56061065,-0.009616416,0.7502299,-1.3544898,-0.5396699,1.5995929,0.12990248,-1.2558509,-0.6036563,-0.7177832,0.09633964,0.33235002,-1.6829617,1.8846501,-1.1800003,0.31748787,0.09253127,-0.67802155,-0.33644354,0.6581913,1.0523076,0.38746923,-1.3534696,-1.4832128,-1.3952137,-0.70497084,-0.3308676,-0.81671494,-0.5144102,-0.61584073,1.4920733,-0.06472357,1.6713836,-0.53222334,-1.0063674,0.9388549,1.3107334,0.8905342,-0.94619614,1.1519971,0.43747324,0.5778405,0.042589944,-0.3197611,0.1392339,-0.35332724,0.96195793,1.8402067,-0.6305546,-0.25221443,-1.9996498,0.15039636,-1.4475901,-1.5942338,-1.3329601,0.9897089,-0.21067579,0.16346274,-0.47637394,-0.28142703,-1.2096006,0.97470385,2.0568655,1.9072703,0.20250878,2.2059622,0.63368446,-2.253956,0.78906626,1.1002127,-0.0032827547,0.5511814,1.5439959,0.34310833,-0.9141311,0.97622883
opportunity,-0.513435,0.84970707,0.18338093,-0.42448646,2.3713763,-0.50482476,-1.5860915,0.23948522,-0.32445493,0.7806793,-0.2819021,0.96652156,0.6172932,0.9173231,0.54006404,-0.027598124,0.9085253,0.03389394,1.1192591,0.1696903,0.8864216,-1.1381202,-0.40385926,0.6990422,-1.3289211,-0.055471722,-0.7233612,-0.1531743,-0.28736615,0.11295541,-0.7772677,-0.46951517,-0.6124884,-0.45548674,-0.019173147,-0.124933474,0.7216618,0.41191414,0.34316066,0.06693204,-1.0408446,0.3876119,-0.45108056,1.2785845,0.15267394,-1.5101727,-1.2464708,-0.8177877,-0.58129215,0.51270056,1.3556769,-1.6418661,0.3152781,1.0247414,1.7135699,-0.111290686,-0.7031779,0.0927979,-0.406164,-0.7464416,0.49122962,0.911805,0.67036486,2.6867373,-0.61860037,-1.233522,-0.6508671,0.20109971,-0.67850304,1.3430618,0.4793255,2.6589313,0.41872054,-1.2082957,-1.1787097,-1.767425,-1.0612996,-0.8067294,0.25947952,-1.444711,-0.26837403,0.55261946,1.0923808,-2.6335554,-0.17224815,-0.39226273,0.8742991,0.76601547,-1.6207839,1.0173308,-1.1678988,0.14341865,1.2731805,0.27270165,0.4324537,0.8715851,0.7094061,-0.2742416,2.025091,-0.4759268
funds,-0.79393935,-0.16956432,-0.53868115,0.4231813,-0.69671947,-0.98864853,0.18142535,0.010133158,0.9137139,0.4875297,-0.6470922,1.3951393,-0.564288,-0.75590205,1.7099056,0.5985581,-0.3647831,-0.7942726,1.0997212,-1.457898,-1.7591707,1.6199814,0.36868966,-2.3196356,-0.020215891,-0.20014144,-0.044985224,-1.0264566,-0.833981,-1.4399122,-0.030270437,0.98841274,-0.60161006,0.5109816,-1.4275869,1.2968564,0.022092769,-0.5288424,-0.47344947,0.9174562,-1.4430568,0.048398178,-1.0357682,1.7274421,0.93850595,-0.46803403,-1.469693,-0.9498149,-1.8081628,-0.1349664,-0.7040941,0.051099613,0.4382401,0.18106313,0.41179,-0.84412915,-0.03693177,0.4088768,-1.8093417,-0.49765643,-0.68888545,-0.79045916,-0.33341601,0.68128204,-1.012514,-0.74488276,-1.0668684,-0.3677023,1.0372661,-0.93332356,0.7112523,1.8127642,-0.38066608,-0.56048965,-1.4501656,0.07856591,0.14837061,-0.10285152,-1.9178379,0.96509,0.3631702,1.271279,1.1287885,0.34451076,-0.75056916,0.4543549,0.23501919,-0.6227211,-0.2865779,-0.029406229,0.23531601,0.36321428,1.2924232,-0.28215665,-1.1581743,1.6950552,-0.5081608,-0.37652594,-0.63349015,-0.4393257
building,0.81750256,-1.7879372,0.65281296,1.7967209,-0.60846263,-0.1547341,-1.9655073,-1.4040424,1.8770097,-0.22954133,1.573388,-0.74880725,0.4581812,-1.2590367,-1.5633037,0.7097308,-1.2277701,-0.6973848,0.05503108,0.70681685,1.1377916,1.0977129,0.89358515,-1.3352839,0.5737614,1.1956204,-0.66420656,-0.0004392504,0.55045056,-0.5110392,-1.0520393,0.5335534,0.0014974659,1.1256588,-0.18636759,0.595419,-2.131743,1.0671587,-0.07390018,1.8043178,-0.61376303,-1.2658018,0.27297267,-0.25026038,-0.074090466,0.37047383,0.85495645,2.2665813,0.72790676,0.23757976,1.7827637,0.5035153,1.0100077,0.63295853,-1.447286,0.057917286,-0.84175915,-0.81428987,0.88054365,0.21818906,0.6392429,1.9229432,0.442695,0.7937507,-1.5039701,0.8995156,1.9933646,0.82462496,0.04715148,-1.8354456,1.1614625,0.66057265,-0.5986482,1.156487,0.93351257,1.5348029,0.9523771,0.8551704,1.275982,1.0008978,0.66314316,0.66934973,0.06430528,-0.064043924,-0.37247685,2.0014458,1.1080648,-0.25745192,-0.7988837,0.08374418,0.08162081,-1.007191,1.5532795,0.84810346,0.5417293,0.69931066,0.97868305,-0.9635417,0.6491755,-0.595565
access,0.8672043,-0.74660873,-0.30713,0.33359712,0.3407303,-0.2743678,-0.32836026,0.071831256,0.63529223,0.38553947,0.41573593,1.707971,1.1793684,-1.1202517,-1.3547345,-0.4161159,0.3288712,0.314568,-1.9690399,-0.8323078,0.7288354,-0.10383415,1.1837175,0.78393126,-1.5965154,-0.9818618,1.6535499,0.09015344,-0.76234514,0.03181829,-0.42789498,-0.21968739,-1.0524997,0.8463514,1.2613536,2.1376808,1.2830523,-0.979775,-0.90285033,1.6641423,-0.71960443,-0.11007907,0.7389801,1.2653732,0.3148281,0.32174438,-2.399885,1.5818919,-0.58819425,0.17352135,-1.2410777,-0.42669505,-0.23039247,0.9977466,-0.6307116,-1.029452,-0.6767972,-0.24626394,0.88162655,-0.4148518,-1.050038,-0.47344112,-0.28309453,-0.3227631,0.08379752,-0.46850768,0.35493946,1.624565,1.3164647,-0.61405575,0.2300198,0.58953506,-0.005945692,-0.375949,-0.0012039547,0.34949362,0.74233955,-0.4169007,2.7174253,0.45888868,0.09102268,0.6384931,0.4849484,-0.14375162,-0.9733246,0.79109526,0.5362304,0.91782135,0.39400822,1.8096949,0.8091978,-0.04190421,0.81987524,-1.4889629,-0.0885878,-0.641055,0.21156958,-0.18595211,0.10114447,-0.6785753
r&de,-0.3183469,2.6123223,-1.2477888,1.1784931,-1.793742,-0.9065606,2.1150408,-0.7173559,2.852108,-1.9709053,1.3836483,0.15391415,0.0769242,1.112057,0.83994406,-0.23987918,-0.8748444,-2.4025416,-0.79263943,-0.49860618,0.8696409,-0.38927376,0.81585217,0.93328756,1.1379993,-2.034356,-1.2040704,-1.1456736,-1.0173193,-0.9186425,1.247938,1.481118,0.707101,-0.24583349,1.17209,-0.97897637,0.7107065,0.11891875,-0.7614221,-0.48096415,0.105660304,-0.724024,-0.47112867,1.0074102,0.34845373,-1.268653,-0.778268,1.0630661,1.0239432,0.41432306,-0.35145405,-2.269571,0.23744859,-0.59064645,-0.6998262,-1.5660744,-0.29708093,-0.55581176,0.429017,-0.6809502,-0.66268915,0.42198214,2.2743778,-1.202716,-0.2570595,0.32072538,1.0257006,0.49915284,0.15971851,-1.1723328,-1.8403766,1.1602674,-0.18841794,-2.3376944,0.13373378,0.15629724,-0.025010973,-0.6399191,-0.9880557,0.23487797,-0.44626045,-0.2914018,0.089037724,-0.9197433,0.26692104,-0.65560323,0.14110179,0.70192903,-0.20020653,-1.0828465,1.0564194,0.14774811,0.18191019,-0.8820006,-0.30662763,0.6548542,1.251114,2.1492581,-0.4905958,1.7851444
student,0.44745672,1.2729836,-0.33791456,0.604518,-1.735892,-0.55550486,0.32046503,0.021241756,1.8348492,1.348221,-0.73892385,-1.439455,1.8883468,-1.417013,1.7136301,0.23311688,0.79438126,0.86916226,0.3944939,-0.9311535,-1.1693411,0.83960396,0.27623862,0.5904323,0.76965463,-1.7364662,-1.0782567,-0.64373606,-0.13954245,-0.26282683,1.0258615,2.0744452,0.3853518,-0.35599285,0.1081635,0.21488278,0.5003686,0.3597652,-0.6182861,-0.6559049,0.1271122,0.022733653,1.9724146,-0.5677948,1.3445402,-0.3769975,-0.7362094,-1.260199,1.1375009,0.7414216,0.27431777,-1.1090016,-2.121088,-1.3175577,-1.2023181,-1.44046,0.6325372,-0.020184753,1.5690522,0.6028202,0.7741311,-1.8693413,0.7467584,-1.1180422,-0.83668995,2.534877,0.38701585,-0.89424354,0.7347098,1.420177,1.4069593,1.1755277,-1.5905523,-1.404074,1.4605408,0.28816086,-1.9125078,-0.4185109,0.109487996,-0.008028617,1.1736027,-0.14133577,-1.4243507,0.16658483,0.41655323,1.4226245,1.2372073,-0.34534064,1.4169922,0.49708083,-0.2199757,-0.6224179,1.9657987,-0.060340654,1.3334798,0.9734549,0.1502098,2.0945728,0.46853465,0.9428244
housing,-0.19718829,1.248348,-0.7300286,0.23341376,-2.1676452,-0.2131792,-0.58555675,-0.58062315,-0.41084823,0.9594931,1.6850783,2.1895387,0.47955495,0.8567301,0.3241696,-1.2674468,-0.917197,-0.44352204,0.6238979,0.33205235,1.3419578,-0.040874053,1.7056977,-0.8792979,-0.009929869,-0.37065348,0.018493842,-0.8219065,-0.5962918,0.34607685,-0.35753712,1.9482218,0.9069033,1.2802726,0.19972956,-0.008745558,0.6403543,-0.12475565,-0.2832119,-1.2078229,0.4076133,0.31303257,0.13997881,1.8861917,0.91964686,-0.45587716,0.8908028,-0.07926437,1.1839541,-1.1174674,-1.0205326,-0.7209956,0.010304337,-0.9254809,0.15214969,-0.6062154,0.48095083,-2.2553825,-0.118116364,0.3048252,-0.27507284,-0.5017417,0.18286303,-0.5916989,0.6409457,-0.53232867,1.8203219,-1.1168859,-0.5196392,-0.98188895,0.6489975,0.7321877,1.9299943,-3.3010628,0.12332239,-1.0501858,-0.5659336,0.18367691,-0.3818348,-0.38213375,1.2354689,-0.7922868,0.8143185,0.79176855,0.1438132,0.6738642,1.214433,-0.710702,0.63169897,-2.2750401,-0.517987,0.3033902,2.0197706,-0.25092912,-0.34731546,0.52473444,0.29562384,3.3486667,0.5683096,0.036973953
fsi,-0.07128632,0.28408647,1.136121,1.4143044,-0.017817117,-0.4981696,-0.034499966,-2.53712,-0.3942688,0.34799698,-1.2463115,0.80009615,-1.3704646,-0.278669,-0.5772716,0.15354823,-0.073455505,-1.273795,-1.2944258,1.2507021,-2.1083026,-0.08114097,-0.42321327,-0.11633059,0.45289224,2.2247045,0.4302319,0.45007733,1.1654593,0.37980828,-0.7131056,-0.01584853,2.025971,-0.29848713,0.7771095,0.08153517,2.250739,-0.8957774,-0.10997225,1.3277266,-0.28632176,-0.020987134,0.25499442,0.6094524,2.1252303,-0.60503095,0.23658201,1.1901544,0.46733102,-1.29863,1.4039266,0.6755976,1.5434486,2.7415142,0.7463196,-0.25130197,-0.35118428,0.96180177,0.0739624,-1.9154694,0.45445138,1.4108872,-0.4558247,-1.1341451,1.077472,-0.20222442,0.14999686,1.7028942,-0.6073346,0.03862583,0.23624676,0.20381604,0.7561116,-1.2748866,-0.7024563,-0.8100527,1.541053,0.60052353,-1.1162657,-0.11243863,-1.0367436,0.032122612,1.450129,0.4626777,-0.34589416,-1.2009025,1.501902,1.5300528,-0.043666977,-0.17595881,-0.41785857,2.0031133,0.12658799,-0.3313103,-0.94754934,1.7542266,-1.3433453,0.8199308,-0.4079474,0.4133851
spice,-0.8679015,-1.1591406,1.0944299,-0.116401695,-1.7948581,-1.7030684,-0.34826487,-0.36606863,-0.22405642,1.5580353,-2.324055,1.3971488,-0.39732507,-0.145862,-0.3427587,2.3532515,-0.8062443,-0.33866313,0.32727122,-1.1806207,-1.5036513,-1.5407689,-0.50796276,0.052687697,-0.73652035,1.9006087,-0.017537344,0.3336764,0.5662901,0.6046963,0.4860489,0.91137165,-0.61673695,0.4154704,0.37528217,0.26895073,1.5609071,-1.1572102,-0.20592065,0.61541295,-1.4694326,-0.24325724,2.4625733,1.4109633,0.35422584,-0.8829757,-0.33036968,0.64519465,0.30899644,-2.4323688,-0.8672171,1.396314,0.6889964,-2.226973,0.17719372,-0.20699118,-0.33995813,1.7918452,-0.044893853,0.68265253,-0.6157043,0.14587209,-0.7656018,1.4923153,0.2847252,0.9402307,0.7390096,0.76987976,0.27235895,-0.74056435,-0.79542047,-1.5190197,0.8170436,1.2589628,-0.75838274,-1.8816154,0.7217159,0.111101344,-0.06545374,-0.3800757,1.3015226,0.6176349,-0.24000342,-0.45193833,-0.80344325,-0.69940984,-0.9268763,-0.670021,0.0966513,1.1951197,1.5824614,-0.78563637,-1.1639974,1.0711067,0.07505994,-0.89772576,0.023052732,-0.65442127,-1.105865,-1.48273
privileges,1.1034069,1.3273364,-2.4425926,1.7357259,0.50539714,0.16643219,-0.851827,-0.7172385,-1.2694567,-1.8357673,-1.8743129,-0.5059344,1.8009746,-1.9871291,0.5244796,-0.653352,0.43452302,-0.36992478,-0.5392396,-1.0914476,0.27349806,-0.21587633,0.24681924,1.2857629,-0.34810326,-0.6143713,1.6725941,-1.7058066,0.52381945,1.1554217,0.6386018,-0.014148407,-0.4046459,-0.32091463,-1.7692158,0.3997157,1.5282307,0.63273656,1.1338634,0.043935526,-1.1651834,-0.9576878,-0.22740588,-0.82133305,0.16546698,1.7524228,-0.7090112,-0.042306423,0.54611444,0.9149012,1.2953498,2.159496,0.5616937,0.29438183,0.7705939,-0.31952074,-0.8462135,0.27532238,0.4205528,-0.3427877,-0.05134756,-0.108372174,-0.6557925,0.9589523,2.4704936,0.8426474,0.080188505,-0.77573365,1.3214169,-0.90385544,-0.41494277,1.456078,0.5301859,0.25914618,1.6881344,0.3423071,-1.3473853,0.26789683,0.9609556,-0.9037101,0.7041552,0.14759213,0.87631226,-0.5256545,0.7909851,0.3685555,-1.8056129,-0.113699995,-2.2065737,0.55493075,0.076743096,-0.4961487,-1.1009433,-0.3188481,-0.09211944,-1.1329311,0.7260415,-0.7124914,-0.27619183,0.862331
libraries,-0.35855228,0.56207395,0.17766373,-0.37265137,1.0433869,0.910118,-1.5933212,-0.15597217,0.8757652,-0.059290443,0.18614481,-0.3802479,-3.015775,-1.2958884,0.9920006,-0.12685776,0.67035896,0.64092505,-0.07272872,-1.8515928,-0.67108786,-0.25578165,0.003802948,0.36479068,-0.36097252,-1.0058182,-1.0621778,-1.6099347,0.7724164,0.43169343,2.5391548,-1.1532238,-0.41075122,0.6806928,0.10872979,-0.4870616,-1.0856394,-0.6494895,0.028357113,-0.49781418,-0.354603,-0.16574295,-0.76730424,-0.24176241,0.37266898,-0.8488741,1.6003522,-0.4435505,-1.4570285,0.4193894,0.5265685,-0.083098724,0.66591287,-0.85909945,0.084622644,-1.7342163,0.04447307,-0.11103368,0.021447018,0.44706625,-0.7769636,1.6232848,0.3706407,2.2361653,-0.0056013847,0.944261,0.56750685,0.7564452,-0.2771607,0.010672394,1.4939196,-0.09987407,-0.69156116,0.3597103,-0.15519679,0.11308895,-0.414093,0.25097063,-0.5238142,0.82733256,0.5061082,0.5189645,-0.14372462,-0.6313424,-0.17581911,0.51457673,0.13220108,-1.0877656,-0.81408656,1.3388873,0.11664995,0.83993506,1.6464047,-1.1852417,-1.1000023,0.45640692,0.092096806,-0.31689164,-1.539813,-0.73823303
campus,0.55106413,-0.35432333,-0.1330131,-0.17701155,0.6313044,0.7329762,-0.0668151,0.04117107,1.1310133,2.063357,0.3015163,0.6053645,0.10458879,-1.1874765,1.199734,-0.14204648,-0.13273174,-0.9312073,-0.8372116,-0.20161335,0.81886256,-0.12400359,-1.2455796,0.96394897,0.48050702,-1.0742195,-0.46569827,-1.7949864,-0.46414906,-0.84902734,-0.7550717,0.42009988,0.58178085,1.9458336,0.7408875,0.41230464,0.56253415,-0.02002297,1.1873492,2.0791736,-0.506557,-1.1622193,1.8211149,0.14925249,-0.6130716,-0.16839348,-0.03779092,1.0352491,0.23030005,-0.024368187,-0.82067156,-0.0931705,-0.10907569,-0.40110666,0.21040338,-0.5821667,-1.1153551,-0.48902193,1.163075,0.9366785,-1.7464061,1.854927,-0.099007145,-0.38898146,0.4776221,0.61840475,-0.32054156,-1.1021539,0.6943412,-1.2464569,-0.21673459,1.8599563,0.11614188,0.19673924,0.3443639,1.9990145,0.4865325,0.22974476,0.19516174,1.4919716,-0.68176347,-0.84231687,-0.95689857,0.12780441,-0.4570844,0.014451717,0.32074535,0.17519782,0.31786567,0.9431958,1.551296,1.265116,1.0979255,0.36471084,-0.075450346,-0.66018087,-1.0866264,1.0985881,-0.48377666,-1.2810887
id,1.0940906,-1.5164628,-0.44929755,-0.6883341,-0.3276145,0.20893224,-0.8979523,-0.8294202,0.10660339,-1.174495,-0.36915734,-0.9825185,-1.6149784,-0.14870267,0.15954788,1.186049,-0.41804156,0.65732855,1.0632695,0.6363486,-0.73039514,-0.47371846,-1.1774995,1.4091539,0.3220347,0.115358934,-1.1635814,0.68406904,-0.83010274,-2.647786,-0.13521306,1.0995723,0.63264555,0.21986508,1.1140071,-0.097997524,-0.24500643,-0.92717403,-0.21727815,-0.12593547,-0.39021754,-1.0198702,-0.40854493,-1.5581628,-0.35241067,-0.37975004,-0.3708029,0.6003034,-0.9342068,-0.28518042,0.6360445,0.6085522,-0.2587747,0.98184717,1.4606959,-0.57981336,0.5813394,-0.5219706,0.5004485,0.34651095,0.5849904,-0.4964592,-0.27335337,0.2537192,0.9011256,-0.18610923,0.021979097,1.3211578,-0.5600131,1.1195138,-1.5954481,-0.22279856,2.8551996,-0.10836237,1.9081962,1.7728083,-0.7625685,-0.56684387,1.2410992,0.85395026,-0.03520971,0.25665405,-1.0738512,-0.4843149,-1.0629518,0.19246137,0.15181115,0.62792856,1.0627023,0.041298926,-0.38103572,-0.023006665,1.6675963,0.33120316,0.32156736,-0.38973683,0.50489503,0.77460736,-0.28182355,-0.46735156
holders,0.741545,-0.4343485,-0.059260584,0.7011401,-1.195357,0.36197543,-1.82451,0.3283285,0.2412374,0.18377265,-0.6672986,0.58715445,0.47756588,0.47627032,-1.1006969,-0.9488178,-0.7365564,-0.03138235,-0.5779788,0.31774288,1.4675205,0.21212485,0.55126673,-0.12370041,-2.594943,-0.2183622,-1.5117717,0.25574088,-0.14758037,0.6478439,-0.43534222,-1.4159735,-1.4682035,-0.0071145706,1.186819,0.07406124,-0.73251164,-0.09016063,-0.23883682,-2.3364604,-1.5404046,-0.45697582,-0.6699827,-2.770881,-0.008128205,0.79878104,1.7140782,-0.9631594,-1.9273052,-1.1804678,1.1013092,0.055602606,0.028505236,0.26820308,-0.24389854,-0.20438728,-1.8636502,-0.9145195,-0.9755538,0.74699086,0.01682392,-0.68506306,-0.5229349,-0.53307503,-1.0360546,0.72448045,1.0422152,0.8350213,-0.25363863,-0.3322722,-1.1919918,-0.42027578,0.2604275,-0.39876136,-1.293182,-1.1460679,0.017791793,-0.705117,0.9822769,0.26565278,-1.020909,1.9462075,-0.77598286,0.2671307,-1.1213497,-1.4624321,1.0584189,2.0254002,0.2309699,1.6247628,1.2152671,0.6023777,-0.30014372,-1.9851011,0.17780821,-0.41055405,-1.0395784,0.24116313,-0.983696,0.23242263
program,-0.4252983,0.6269173,0.986143,-0.01784321,1.3653469,-1.182664,0.5223517,1.3856604,-0.8969375,0.7671868,0.06884867,0.7901622,-0.27199927,1.9947765,-1.7062353,0.22265695,1.0533487,0.30670458,1.45198,-2.1681647,-0.19257066,0.518617,-0.8832668,-1.0505923,0.40845335,-1.4873428,0.019883705,-1.6009716,0.099242054,1.3196068,0.90111345,1.0682913,-0.78758514,0.1764011,0.12293384,0.3559579,1.2269992,-0.9234647,-1.8481224,-0.72780454,-0.2337964,-0.27383393,-0.30312923,-0.30015543,0.92200655,-0.7754185,0.34204614,-1.4821831,-1.4043016,0.69675267,-2.3829298,0.2601867,0.9986721,-0.9728535,-0.78386325,-0.88512766,0.55059683,-0.14236122,0.35381317,-0.50032085,-1.0698059,-0.5312183,-0.3315644,-0.35432023,2.0498586,-1.1008495,0.08032176,-1.370708,0.23422481,-0.5510444,0.23884086,-1.0643657,0.1261157,-0.38907725,-0.93287516,0.70860845,1.1710562,-0.5131223,0.80454844,-0.8401714,0.27066398,1.1028978,0.1410728,1.2507793,-1.9793142,1.0357364,1.4216665,-1.0220939,0.28285074,0.16984533,0.069657244,0.41692805,0.34328803,-1.5048599,2.1706526,-0.1923894,0.15467903,-0.71682864,0.17702049,-0.40421337
sheets,-1.4521203,0.990441,-1.6645308,0.011639712,1.6965673,-0.5140517,1.1116105,-0.68846786,0.07157127,1.0969771,2.2094598,0.029461253,-0.81856817,1.0646526,-0.15941928,1.0387975,0.7983453,-0.6129684,0.8017754,-0.91821975,-0.3420549,-0.52486956,-0.4535439,0.8752377,1.4761553,0.5952694,-1.1546638,0.23498395,-0.9906961,-0.28074265,1.059639,1.2386723,-0.43337035,0.26605174,-0.6911138,0.7050028,0.09555689,0.34560597,-1.4741701,-0.2617234,-0.10217642,0.13356751,0.12998036,0.16414717,-0.1682562,-0.30511996,-0.34085804,-0.5520072,-0.5984014,-0.097770944,-1.1005814,-0.43788472,-0.07507596,-0.2728794,2.8516293,0.8919219,-0.42985556,0.91283834,1.2186073,0.25014943,-0.682643,0.6327209,-1.2059838,0.0014273901,0.14392285,0.28972727,-0.03897741,1.7563584,0.8625355,-1.8460226,0.65377635,-1.2166959,0.24231309,1.4576691,0.36401817,0.542306,1.8442677,0.057252448,1.7915819,0.20348242,2.2792835,0.025822138,-2.0932972,-0.078262225,0.044401128,-0.19896407,0.11263366,0.39646423,2.210799,-0.14786671,0.48971108,-0.03637875,0.033788692,-0.3314541,-0.39839956,0.11296009,1.251499,-1.1043292,-0.81074744,-0.054686498
current,0.11516301,1.2709591,-0.5163322,0.0138451485,-0.5192128,0.64837164,-0.10263538,-0.12807405,-0.953768,0.3368081,1.2362398,0.92129505,0.6221759,1.7362907,-0.54958206,0.80886406,0.85737467,-0.92052984,-0.5493564,-0.8927642,-0.92629695,-0.5515466,-1.88725,0.3938287,-0.026768282,-1.2817888,-0.90160316,0.77195495,0.3022415,0.8638383,0.05698684,1.0442544,0.4057571,0.7068023,-1.7599299,0.07315014,0.5809915,0.16599277,0.5002625,0.9336771,0.22400776,-1.3338139,-1.2659873,1.5725707,-0.65821195,-0.76510155,-0.50624454,-0.3025241,0.09410408,0.013464377,0.7879419,0.2643658,0.6738201,-0.9090336,-0.57599676,0.924145,-0.026462309,0.018367363,1.5494909,1.3227855,0.94488454,0.32831085,1.1127129,0.25883722,1.0871774,0.85758156,0.96784145,0.56645393,-1.1898474,1.3645089,0.9399156,0.34175053,0.61128366,-0.3872278,1.3777361,-0.43106157,1.0117576,0.2742886,1.1659949,0.15325287,0.40793288,-1.1826249,-0.2551703,-0.5311744,-0.8368743,-0.189339,-0.99179584,0.3318265,0.42147082,1.2757275,-0.6035291,-0.1759194,0.4617345,-1.6519463,0.4984057,-0.8080885,-0.18307203,-1.605594,0.15066358,0.27919084
cs,-2.6823723,3.0606318,0.9054769,0.36500242,-1.8490356,1.2196741,0.3813367,-0.19946955,0.6978599,0.5116885,1.459446,-0.64424163,-2.2136219,2.1669729,0.2516188,1.7751406,0.8214134,0.6469695,-0.4066042,0.75484633,-0.92657787,0.4054697,-0.045582287,1.1548449,-0.76517427,-1.395854,0.31520236,0.9797329,0.6677133,-0.28637877,-1.587516,0.7375035,-2.6919847,-2.3572958,1.6420454,2.542838,-2.2846797,-0.4522966,-1.4690617,-0.8208187,-0.7077865,-0.096021205,-0.0015039626,0.96883076,-0.77753437,-0.71513164,0.04702477,-0.8651944,-0.6747829,0.74011785,0.78321725,-0.87655985,-0.34132877,1.3664519,1.9173295,-0.4006762,-0.47394648,0.7127708,-0.13570778,0.077619664,0.4894358,-0.89428884,-1.2903601,2.2620862,0.53851223,-0.11340279,1.5958246,-0.060391862,-0.56780046,0.95707536,-1.6734213,0.021204244,0.01264858,-0.6312738,1.1278062,-0.32671198,-1.3067942,2.032143,0.15801817,-0.7351514,0.4703154,-2.2751243,-0.4670222,0.8147443,-0.36823377,-1.0592618,2.4823139,2.0701864,-1.0248073,-0.43172646,2.2141957,0.23146182,-1.0175898,0.5874312,0.5645084,0.97188956,1.5901247,-1.2525525,-1.5510551,0.46166882
take,0.4012042,0.40964544,-0.22233021,0.45587686,0.90919083,-0.10574316,1.7491515,-0.4744147,-0.21739823,-0.50512516,0.64845574,1.272515,0.39998126,0.37823308,-1.6933327,1.3376453,-0.124627605,-0.5193414,0.7159424,0.3680672,-0.8133609,-0.27914578,-0.030243367,1.1141965,-0.6879831,-0.48303357,0.2418659,1.1657577,-1.1210775,-0.0034244028,1.2075282,0.0874335,-0.8282598,0.90636015,0.7876946,-0.30947268,2.1076887,0.9831697,0.3583606,0.12576988,-0.16233428,-0.66007215,-0.84240884,-0.6626668,-0.86814606,0.035206348,-0.20499617,-0.7674028,-0.30168813,0.4670231,-0.069008596,1.3016522,-0.044392183,1.394191,0.5400565,-0.5037414,0.29365805,-0.98314893,1.256955,0.56596756,-0.58139336,-0.4533148,1.2371056,-0.91329694,-0.76189,0.5252201,1.2007077,2.2766473,-0.11529131,0.17442235,0.028296167,0.6804481,-0.09040379,0.3467369,0.48016265,-0.21528843,-0.059836693,2.0018115,0.58197135,0.4103817,0.4503295,-0.13451451,-0.17147397,1.4141557,-0.014563914,1.3055943,-1.3198346,-0.62905157,-0.8984172,-0.24209361,-0.891114,1.1375184,-1.2268981,-1.245897,1.0132552,0.25736508,-0.7932201,0.58510035,-0.68737465,-1.4445955
classes,-0.7090153,0.949275,0.8818485,0.4025031,0.08299389,0.188932,0.52216905,-1.2332025,-0.5574542,1.4623302,0.2169781,0.30120847,-0.5571663,0.86287385,-1.0298663,0.41859615,0.53666204,0.3624642,1.1787672,0.27382565,0.39854905,-0.9417084,-0.09382593,1.077417,0.9556064,-1.0608501,-0.7177696,0.6704125,-1.9393623,0.16898488,0.6171825,1.1275543,0.30009484,-0.24426392,0.7385873,0.69039047,0.5169017,0.88457483,-2.0591078,0.305948,0.07139254,0.087950125,-0.879404,0.9255778,-1.6180632,1.0193888,0.2635166,1.0620916,-0.058875456,0.9519993,0.76680917,-0.9100514,-2.6463919,0.4973656,-1.7224042,-1.4801011,-2.5463748,0.834202,-0.83589786,0.60561925,-0.49153683,-0.8011764,-1.0742952,-0.21665321,-0.5621986,0.5414942,0.023422956,-0.052037023,0.061056804,0.0060869306,-0.72478706,0.20466688,0.04911285,2.196733,1.0992292,1.5169786,2.2708545,1.528881,0.5117645,-1.1395565,0.629053,-1.4677695,-0.28849098,1.1424208,-0.7232922,1.5031183,-0.8613905,-0.026566695,-0.41215873,0.6350602,-1.0853838,-0.5124066,0.9057025,1.0321316,-0.70672023,-0.76974994,0.43056634,0.78820777,-0.13158175,0.4731752
sheet,-0.3626568,1.1163349,0.8894035,0.32708386,0.8504158,-0.6808388,-0.19817138,-1.0075419,-0.47712725,0.27663672,1.6867007,0.070127904,-0.066719234,0.6447746,-2.5966423,-1.2309994,1.0094111,-0.57396126,0.31165913,0.40926653,-1.7570572,0.2622596,-1.2660593,0.78535455,1.3258628,0.32839775,0.26203105,-1.1372339,-1.7934847,1.0458734,0.09955453,-0.26153177,-0.85164404,0.2800843,-0.114115365,0.8079289,0.33457178,-0.49502724,0.8829118,-1.288688,1.3831931,-1.5092429,0.80787385,-0.00605234,-0.40767795,-0.22579724,-1.5105946,0.24553649,0.74768937,0.93881696,0.7084559,0.9718795,0.14379379,1.0641285,0.38148698,-0.19125368,-0.14408222,-0.506147,-1.0108012,-0.3354294,-1.005397,-0.4829341,0.8065396,1.957012,1.2641652,0.35718012,-0.8243271,0.3073847,0.1463005,-0.565846,0.46714985,1.1354187,-0.5036455,0.595232,-0.233468,1.1318337,0.9404648,0.79062843,0.10715008,-0.8111556,1.0061151,-0.12988183,-2.7578301,1.6957495,-1.3009813,-0.46568868,-0.5384357,1.2367733,0.31824946,0.66271454,-0.29532942,0.5390414,-2.4445162,0.18969393,1.0564398,0.59100145,-0.067721136,-0.39335334,1.3723726,0.67993337
fill,-0.30681446,1.2497699,0.11842555,-1.1136984,-0.33794212,-0.5723798,-1.2507439,-1.6039917,-1.4125955,0.6233686,1.642101,0.23012045,0.41402003,0.22962843,0.5336201,0.8452349,1.2493126,-0.104543276,1.2544065,-1.739874,-0.19794877,0.10167632,-0.550944,0.10418793,-0.18653747,1.6323246,0.33403486,-1.2200869,0.06040144,1.2487149,-0.5214981,2.1832175,-0.42235547,0.14998767,-0.78521097,-1.3602325,-0.050280306,0.3661705,-0.35476953,0.8356047,2.4592257,1.5597404,-1.6784428,0.036840115,0.5626161,0.3040875,-0.2723002,0.7473211,-1.7276675,0.33423132,0.013641449,1.1081539,-1.1871367,1.2167205,-0.49727535,-0.7041439,0.16460213,-0.105842575,0.23128209,-0.12295814,0.4112448,-0.98539877,-0.8492292,-0.29585272,-0.32892367,-0.0128812315,-0.3953609,-0.26605105,0.73178166,-1.5277894,-0.109650984,-0.30654162,0.891535,0.25110203,-1.4914159,0.70059085,-0.39479136,-1.2312119,1.438515,-0.6154805,1.6575683,1.0495158,0.91540396,0.24565454,-0.20152207,-0.4421357,0.686115,1.2326937,1.915654,2.1716573,-0.26734987,0.9013503,-0.68985325,0.36695102,0.14882877,1.522134,-0.544103,0.22535636,1.1737738,0.64483404
use,-1.2806505,-0.94858336,-1.0238053,-0.2923977,0.23374082,-0.5828874,1.610762,-0.27404225,-0.9117521,-0.311708,1.055531,-0.64196205,0.992631,0.77034545,-0.55816585,-0.755598,0.68824416,-0.97151774,-1.214772,-0.64696574,-0.9088584,0.7124326,-1.728608,-1.1269714,0.61720395,-0.8412789,0.36965725,0.24840263,0.64808476,0.036721297,1.6816986,1.4981421,-0.15945688,-0.41816112,0.45168078,1.055158,-0.57076913,1.637279,-0.5658395,-1.1918148,1.9346786,-1.2185619,-0.0443703,0.18400775,-2.2274237,0.061127175,-0.52980614,1.1780958,-0.9480114,-0.94879884,-0.804172,0.35957775,0.09680033,-0.029561266,-0.5678318,-0.969234,-0.29455873,-1.8190311,-0.29054615,-0.28070074,0.039941654,-0.25130802,-0.099323936,1.3447479,-0.06796976,1.2829127,0.26537853,-1.5223184,0.29116285,-1.2195361,-0.9149485,0.026806956,-0.87317425,1.9960848,0.23248534,0.3344918,1.4124631,2.1044025,0.7354239,0.47297058,0.32781935,-1.3481385,-0.48542142,0.574415,-1.4318594,-0.46857542,-1.0591444,0.11704375,0.47285306,0.75628483,1.1127412,0.7360645,1.4357051,-0.4344999,2.1556683,1.4671515,-2.21449,-0.1618503,-0.40166515,-0.4293411
get,-0.53945684,1.1479943,0.17187652,-0.46957326,0.47566116,1.130368,0.4946706,-0.88295823,1.2315933,2.5063417,0.667889,-0.15008783,1.073445,-0.16110697,-0.6573365,0.13306734,0.57700074,1.3449178,0.08636781,-0.05369394,1.2120463,-0.3199079,0.6709823,1.0800911,-0.0013808848,-1.0421839,-0.61350214,-0.69739276,-0.14218943,-0.90513206,0.30602676,1.8872669,-0.5625711,0.44140932,0.47113982,0.35327357,0.27184236,-0.38008428,0.14936906,-1.4786929,1.3590298,-1.359336,0.37602508,1.4392619,-0.31904793,-0.37113684,0.26149765,0.017882265,-0.6965476,0.2716666,0.35341066,0.47194242,1.1918098,-0.3646284,-0.8192317,-1.7105038,0.21252933,0.68201834,0.87737364,1.5825782,0.27474004,-2.3609898,1.3271744,-0.0065985615,0.5783888,-0.15399922,0.64921576,1.4854351,-1.9885565,0.2134201,0.8977608,0.116280735,0.9191563,-0.110412784,-0.5124898,1.2188473,-1.6199012,-0.45628378,0.3621814,-0.59964544,1.1019243,0.40727457,-0.6608436,0.06419285,0.5025142,-0.48312166,0.55871767,1.3940349,0.9854315,1.9737948,-0.006954877,-0.41738513,-1.2203561,-0.4452989,1.4145796,1.0799491,-0.6480033,1.521548,0.07468015,0.9642655
deviations,0.1088748,0.9693507,1.5180299,-0.28631008,-1.1856953,-2.0918338,-1.5082382,-2.3113055,-1.3779119,0.71263516,0.30141333,0.311747,0.7054213,0.53652614,0.32316044,0.73069483,0.9511511,0.8288081,3.483346,-0.4975189,-0.10089786,-0.8967692,-1.5543274,0.23980832,1.1670752,-0.53552,1.6584178,0.52983797,-2.299733,-0.073677026,-0.11482742,0.4473845,1.6284416,1.219875,-0.057018854,-0.915871,0.3549651,-0.3817439,-1.0729407,0.4037626,0.96456885,-1.5870534,-0.115602285,1.0140414,-1.2555871,-0.040211603,-1.5078993,1.1774887,0.5259196,-0.4328235,-1.1151181,-0.21303746,0.8826583,-0.5200412,0.95926726,-1.0930024,-0.02500134,0.36710232,0.33011776,1.0673261,0.60445553,-0.604552,0.5653293,-0.33965632,-0.3244203,0.2901678,-0.13433059,0.4323733,0.43374813,-1.3198835,0.9103345,-0.84795696,-1.2546685,0.7398444,-0.6315173,1.753335,-0.26265526,-2.0619588,-0.05614455,0.23255917,1.729483,0.23826954,-0.99784786,-0.34110147,-0.05735808,-0.32814643,0.49154937,0.62719476,-0.71532845,1.341166,0.95870614,-0.18647368,0.025757285,0.48298168,1.4245756,0.6721187,-0.534589,0.22802888,-0.44554865,0.57611305
approved,-0.39359376,0.42758882,-1.0770024,0.09832923,-1.2462065,0.2719014,-1.8508509,-0.81973505,0.43669647,0.38905406,2.1078365,-0.36071655,0.9757664,-0.83729225,0.21201056,-0.8775154,1.3906417,-0.809251,1.6134446,-0.97453725,-1.2860687,0.32396913,-1.1679691,0.457907,0.3522141,1.031839,-0.90393287,-0.68765193,-0.6247546,1.5892733,-0.018132122,0.31326136,-1.1332468,0.2799006,0.8447296,-0.58689743,-0.23692152,0.2218203,1.8065358,-0.5472607,1.8988804,1.4242796,-1.0522922,0.38969052,0.701005,-1.5315835,1.4997752,-1.0575534,-1.04376,-0.04571072,-0.065949716,-1.5809803,-2.048194,0.34205574,0.27762648,-0.6377309,-0.022013366,-1.6032131,-0.36087984,0.25867936,0.7559077,1.069902,-1.9509817,0.4660994,1.2796614,2.1653647,-0.20588994,1.4416178,-0.69549525,-0.26883128,-1.8139518,0.23000146,-0.60001045,-0.83191454,0.069897376,1.1589073,0.7712888,1.9711131,1.2528862,0.29530695,2.124349,-1.0818517,-1.2982516,2.3662674,1.2617061,0.66176707,0.44956687,-0.5005614,-0.50116456,-1.8283828,-0.034914985,0.44549593,-1.5820518,-0.26815882,1.1108253,-0.17216288,-0.5311173,-1.6336228,1.4879494,0.793128
old,-0.921854,0.98205346,0.55340075,0.24676034,-1.5100758,0.062755145,-1.2600276,0.5534777,0.40432426,0.30357113,-0.49656686,0.8840081,0.7055816,-0.4526912,-0.8238756,0.19461791,0.9522905,0.021717357,0.3821512,-1.2353901,-0.71908194,0.2543395,-2.42484,0.08709183,0.3390759,-0.5956122,-0.7769292,-1.6757488,0.41799527,0.78374296,1.81794,1.0203612,-1.0222867,-1.0886818,1.2369094,-0.11317499,0.26112202,-0.36206827,0.42616165,-1.9896426,-1.1474174,-1.3931216,0.4958577,-0.44661227,0.6233054,0.22261263,-0.9409432,0.4144808,0.82033664,0.5675179,-1.177207,0.42051008,-1.5949819,-1.0209494,-0.67992896,-1.2979727,0.8790269,-0.56974614,-0.1408583,0.77690685,-1.4219055,-1.8343418,-0.1403201,0.9451101,-1.0512917,-0.7039121,0.35298088,1.0231928,-0.16468994,1.3528942,-1.425084,0.8074581,-0.38447917,1.353536,-0.0365291,1.1474628,1.5549105,1.6977657,-0.58910674,0.75146514,0.5415413,-0.1244551,-0.4800726,1.8822153,-0.20330426,-0.121210515,-0.15854555,1.1967646,1.0823799,0.45232219,-1.4906843,0.3011624,0.003289606,-0.8202723,-0.37139368,-0.54285294,2.3817616,-1.8172146,-0.20836353,0.83601296
cse,-1.3521932,0.95450443,0.07051253,-0.1233937,-0.021324962,0.7879548,0.26422393,-1.2035297,-0.42072296,1.5940554,0.55739695,-1.6858772,-2.4526834,0.7130715,-0.9340823,-0.922173,-0.12801391,-0.048375975,1.1604352,0.0026878861,-1.3030258,2.5820253,0.010609429,-0.30774793,0.45939565,1.66081,0.07320803,0.4137739,0.50118476,0.25095436,1.3050193,0.025229499,-0.40592295,-0.43148372,0.3749997,-1.3174102,-0.9006495,-1.1382542,1.0747356,0.44747868,0.5403167,-1.1706625,-0.8847452,-0.83328104,-0.9337548,-1.3822167,0.25694868,0.3041067,-0.095976636,-1.1027714,0.34702837,-0.81107193,0.06841684,0.36722317,-0.4758204,0.12823999,-0.37907627,-0.6314081,0.5035811,0.8300805,-0.26913986,-1.835402,-0.97733766,0.08974996,0.52533585,0.011327959,-1.7519262,1.2337954,-0.6886557,0.14386617,1.364417,0.39208183,-1.6224182,1.4814016,0.31598258,1.1457262,0.78511846,1.7243477,-0.23026478,0.3333876,-0.5430221,0.7467835,-0.5815766,1.649985,-1.2075561,0.6694327,-0.4326754,-1.893731,0.117607445,0.8355792,-0.7707971,-1.3793328,-1.0781188,-1.4022044,1.2374365,-0.21811904,0.98461556,0.7776567,-0.25540718,1.5267174
hoover,-0.013570621,0.5666809,1.1473935,0.9089058,0.38971114,0.34486705,-0.49033928,0.037103448,-0.51896,-1.1304271,2.0229626,1.2194936,-1.8150724,-0.16404624,1.5834495,0.19843344,0.5816147,0.7411544,1.2699984,-1.6620475,0.21921177,0.36549062,-1.0044914,-1.3633841,1.2656504,-0.93388176,0.0025100699,-0.635068,0.8739109,-1.5105946,2.252594,-0.6833562,2.5346498,-0.34238738,0.7511529,0.76648146,-0.20612489,-0.17363429,0.10224254,1.126087,-1.0480355,-0.043779608,-0.6475775,1.021429,0.599567,0.5090526,1.5854347,0.043997593,0.8776098,0.35384595,0.31912747,-1.0261598,-0.77900505,-0.75819576,0.035564676,-1.2492236,-0.31773424,0.674129,0.11081281,0.34161487,1.0198731,0.5373884,-0.37724757,-0.4707324,-0.5459917,-0.13597402,-0.3188186,-0.62379605,0.6254849,0.7132137,-0.06847344,-0.6066761,-0.2866538,1.2417365,-0.2584016,-0.57355404,-0.35400304,-1.6844591,-2.0498111,0.07481307,0.29032847,-0.49932447,-0.4714227,1.0577978,0.05852388,0.7464909,0.06524217,-0.6894267,0.38198948,1.3176876,1.7658138,-0.86582494,1.0691347,-0.6810865,-0.4913199,-0.060784284,0.30330604,-1.4605583,-1.2438747,0.9699925
institution,-0.17446326,0.010133198,0.65819174,-0.40574518,0.2652841,-0.8803704,-0.12933247,-0.03960129,0.6278119,-0.41488138,1.5443658,0.13924035,-1.135619,0.052320182,-0.46683192,1.9149679,0.08120176,0.43537527,-0.16932565,0.9731524,0.26742914,0.540768,-0.7265665,-1.236252,-0.28217897,-0.88299745,1.1535964,0.23696092,0.6823447,-1.2528753,-0.23025446,0.04401804,0.91670513,-0.26169607,-1.222104,1.5656313,0.67572564,-0.79938954,1.1555784,-0.15819614,-0.65423286,-0.25343212,-0.90119207,-0.87617517,-0.59676045,-0.54339135,1.2478147,-1.515274,-1.519922,0.29790848,0.7652312,-1.3356833,1.3469357,0.005359277,-1.1303624,-2.0019403,0.480324,-0.77553344,-0.21102665,-0.5875782,0.8552809,1.3146067,-0.31003034,-0.6959938,0.28070557,-0.8464374,-0.2804153,0.15183513,-0.5860671,0.08363,1.888509,0.75960916,0.7427797,0.16908292,-0.28855792,0.9174589,-0.20099446,0.7202845,0.4818429,-1.5647385,0.15396734,-0.78216493,-0.31527215,0.9083483,1.8169608,1.0375328,0.85260046,0.2796388,1.9120026,0.7976551,2.322092,-0.0032486997,-0.38654009,-1.0002698,-1.6181657,-0.46581596,0.67290866,0.025843902,-0.97977275,-0.9082069
&,-0.3598557,-0.07864294,-3.038436,-1.5307602,0.68027484,-0.76453507,0.32868537,0.3370541,1.7591519,0.8744497,1.3345181,-0.015043353,-0.52550304,1.7188141,-0.47267678,0.63202906,-2.1404917,2.7720623,-0.7017118,0.6036571,-1.661362,0.6981123,-0.71935713,-0.9755545,2.942534,0.09370089,-0.8216293,-0.7373362,-1.1711758,0.7193326,-1.2055225,-0.122870885,-0.096976705,0.088829815,0.88899183,2.0870688,-0.903761,-0.6884647,-0.3980383,-1.6270598,-0.7510433,-0.014844591,1.969973,-0.54239327,-0.087404326,-1.1541537,-0.31547052,-0.023617731,-0.2354681,-0.7406757,1.7277192,0.3728366,0.16106303,0.6718297,1.7175181,-1.783415,-0.48907936,-0.41124785,0.19403307,0.3466945,-1.0368613,0.026181877,0.7628288,0.060402088,-1.8013356,0.1437999,-0.41055867,1.6440415,2.6243148,-1.5059179,-0.712676,-0.9818631,-0.32990533,0.015517999,2.1069882,-0.08879567,1.155567,-2.0375388,-0.30191892,1.131988,-0.15064117,-0.93562055,-0.6969176,1.0665526,0.9314162,0.4140246,0.20632139,0.9007527,0.61209965,0.09320645,-0.067757465,0.20338891,0.44764158,-0.8482651,-0.84942067,1.391492,0.15912567,-0.35911068,1.4407132,-1.1839001
archives,-0.1388899,0.15434135,-0.62848485,0.4156089,0.35687333,0.7764036,0.71191967,0.8797442,0.32955623,-0.36363575,-0.17490712,0.10743708,1.0379027,-1.1015439,1.8657249,1.0144317,0.38516736,0.45825765,0.4529226,-0.76082504,-1.3990624,0.99359506,-0.28277963,-0.19345748,-0.1573214,1.519701,-0.25387788,-0.7087431,0.6887503,0.9257988,1.0371802,-0.8688295,1.3346277,0.21763647,0.53257775,0.014382434,0.18946299,-0.8915879,-0.59882945,-0.20449355,0.4305145,-0.804086,-1.3691169,0.69119984,0.13134341,0.4840912,0.4340082,0.27148807,1.2074927,-0.7668798,-0.89822394,-2.9731073,1.2745562,-0.4935302,0.76884466,-0.6328483,0.61229616,0.17857969,0.09624016,0.30140334,0.9124094,-0.24373305,-0.57823753,0.2916204,1.6841371,-0.061379306,-0.71042204,-1.0908153,-0.30860654,0.37285158,2.2877305,-1.4153786,0.15956944,-0.54911107,0.83099914,-0.5578731,-0.50435305,-1.6250095,-1.0049579,1.0911453,-0.140465,-0.8819347,-0.9410231,-0.35447693,-0.09095311,-0.28014013,0.7160634,-1.2526145,0.597949,-2.7151315,0.21380317,-1.3008738,-0.21995232,0.13261248,-0.68598676,-0.7952151,1.831613,-0.39852658,-0.896896,0.7016013
parking,-1.0533997,-0.29890484,-1.2528394,-0.35897243,-0.9948789,0.4908999,-0.23256473,2.1248546,-0.1839647,-0.6611919,-0.14149567,0.22893725,0.097661965,0.39669743,0.6188067,-1.607808,-1.0107118,1.7484097,0.17952769,2.6372015,-1.1316322,-0.07862981,-0.3984297,1.0794806,1.2490035,-1.0531228,0.22341187,0.1317489,1.2146056,-0.5987758,-0.4816395,0.105430275,0.33464298,1.4767151,0.651808,1.3704029,0.6856879,-0.94713706,0.7797245,0.8391127,0.30541074,-1.0028543,0.6595619,-0.7082634,-0.91052765,-0.741135,1.1735198,0.62498397,0.86062336,0.6679829,1.4925863,0.5801264,1.4214716,-0.17013265,0.52417845,-1.2360743,-0.90584606,0.10816876,0.22454521,0.8268419,-0.21246521,-1.1795053,0.3006031,0.1529792,2.0519083,-1.9736959,0.39387304,0.26208162,0.74926597,-0.49500808,-1.0651716,-0.15360816,1.7131374,-0.026693605,0.31148243,0.337677,3.201739,-0.30213955,0.46096092,-0.6814491,-0.5896601,0.8706315,-0.5699502,1.0378864,2.0258029,-0.81074065,2.0137222,-0.2899283,-1.0397204,-1.0658399,0.25535214,1.1421763,-0.7254599,-2.9228091,-1.1461971,0.42374453,-0.19147478,-0.35100785,1.7836288,-0.7955315
transportation,-0.018995652,-1.1582191,-1.3703384,0.2065262,-0.8547621,-0.9211467,-0.7691691,0.39964312,0.49679917,-0.8973998,-0.29442847,0.2363222,-0.008881197,-0.006064388,-0.06190162,-1.2477767,-0.30076325,0.20687972,0.35165653,1.1177626,-0.38680628,0.726435,-0.0324252,0.98990935,0.9407697,-1.8854871,-0.62411803,-1.1647637,1.3182814,-1.0834804,-1.8183048,0.7972469,-0.37894198,2.3402975,0.18227533,1.2569665,0.88581485,-0.9026593,0.35284063,0.90676785,0.3792413,-0.5098438,0.61002195,-1.243173,-1.2506233,0.8672621,-1.3502513,1.2241238,1.5014709,-0.41037545,1.7825583,-0.89921796,-0.8007584,-0.54022557,-0.10414283,-0.91588193,-0.26952034,1.3406696,0.60364103,0.059969965,-1.2019316,-0.76208526,-0.52828467,1.0971942,0.56787974,-0.11854513,-1.2402356,0.8460823,1.4819686,-0.21983467,-0.35441872,-1.1372703,0.6896268,1.3421367,0.47305822,-0.8399411,1.913618,0.54690117,-0.18702236,1.7282176,-0.33458018,0.5031229,-0.46018204,0.5043754,-0.15068536,-0.76369494,2.0771096,-0.7809214,-0.75144017,0.011223182,0.23496489,0.9143118,0.75526476,-1.2618523,-0.5293528,-0.05687993,-0.23951612,1.6878902,-0.25998646,-1.0883906
permit,0.64661103,-0.3096311,-0.39451024,-0.18659015,0.7181936,1.094097,-1.5930012,1.2414421,0.036080427,-0.025399514,0.89099467,-1.2592003,0.82977384,0.4417221,2.609931,-1.6224425,0.07159318,-0.44574422,0.5567555,2.4510777,1.0189282,0.560876,0.02271685,-0.1279847,2.3054323,-0.45636117,-0.96483,-0.25332445,0.7312908,0.3684341,1.5824103,1.3605094,0.036287434,0.14601354,0.5397504,-0.82636136,-0.32817495,-0.3461932,-0.57518846,-0.8519703,0.09510349,0.03990509,1.2378249,-0.09301592,0.24264021,1.03239,0.6397355,0.3266704,-2.4121683,-1.1856178,0.0547125,-1.7679985,1.3122597,-0.31846797,1.0477332,0.89279264,0.0953581,0.50467324,1.8448865,-0.57000697,0.4477047,-0.85847425,0.44700557,0.9006226,0.732954,0.6010622,0.28837407,0.5126566,-0.662843,-0.6378845,-0.9327946,-0.6730188,0.09500734,1.6984196,-2.081242,0.0032435583,2.4027793,-0.44737074,-0.69293416,1.271051,0.023522519,-1.4385304,-2.0619924,-1.4189181,1.1125023,-0.22883636,0.5351572,-0.16384834,-0.25082982,-0.7977265,0.30892825,-0.72098255,1.8944288,-0.5951952,-0.76533455,0.5817763,-0.010124338,-0.031418864,-0.3131101,-0.59860647
prices,0.75907695,1.4741061,0.16090828,-0.06948983,0.58405256,-0.75812906,-0.30531842,2.7701216,1.0212834,-0.33519322,0.9930415,-0.47457355,1.682472,0.40903717,-0.2275848,1.523619,0.7870519,-0.43620703,0.2790534,1.7104881,0.07542732,3.2602255,-0.3118786,0.7058758,0.89829445,0.6273926,-0.13292465,0.05332485,0.69915354,1.2662835,0.74513435,-0.23078963,1.212017,1.3946071,-1.4144229,-0.98688525,0.61351335,0.34981385,0.17049183,0.9857707,0.48868284,-1.1539131,-0.5076954,0.11413975,-0.08284541,1.0691568,-0.9814709,-0.7571156,-0.88308096,-1.211568,0.62481153,0.5103949,-0.31631723,-0.54127413,0.1081838,-0.0057442226,0.7201808,-1.3798318,1.5627557,0.9515235,0.42728865,-1.7049358,0.9262125,0.09992851,0.84045607,-0.54466414,0.66336834,-1.1374714,-0.3547938,0.83385986,-1.4187118,-0.9231513,0.08925662,-0.89650655,-0.5997403,1.0603294,1.8264626,-1.1502126,0.3190474,-0.25239182,0.11827528,-0.78768194,-0.873188,-0.5172723,0.011540953,0.57574815,-1.046969,-0.59577876,-0.84155303,0.517481,-0.085336104,-0.9145234,-0.365078,-0.40376306,0.6310554,-0.23488903,-0.056858413,0.07130574,-1.6107839,-1.7210455
order,1.1351749,0.47144067,-1.183926,-1.0776231,0.7193971,1.3707346,-0.22969338,0.9512733,1.0212398,-1.2088337,1.4026535,0.28314823,0.24572222,0.23210365,-0.61832637,-0.24203858,0.09653593,0.12954338,-0.12772849,-0.66371995,1.9712143,0.500833,1.7885352,-0.6192368,-0.08742931,-0.08445069,-0.40579957,0.49364996,0.39263475,-0.28391302,-1.502531,0.18848905,0.93888134,-1.1707778,-0.0493432,0.25793567,0.6604146,-1.0906427,-0.08873241,0.6960705,1.3706859,-1.6288822,2.2162688,-1.4276716,-1.0087175,-0.26457107,-0.80449295,1.2295303,-2.4557035,0.91220504,0.82872206,-0.8115973,-0.58746284,0.31003776,0.15360299,-0.26421398,1.3141632,0.026614066,0.4717153,-0.2464143,-0.81950957,0.22760199,-0.7525094,1.7257077,-0.59682226,-0.6104979,0.39606726,1.0821253,0.43213484,0.59328586,-1.9984882,-0.8737246,0.39004585,0.09504554,-0.8538069,-1.2841898,0.19477855,-1.2725642,1.0763713,0.13360994,0.68177783,-0.16104919,-1.2913353,-0.7047944,1.427607,1.1024847,1.1824747,1.180032,-0.42897388,0.9456913,1.2376386,1.0042635,1.225343,-0.58767337,0.7510357,0.4830323,-1.1583178,0.7276918,0.6000657,0.15299982
permits,-1.2441605,-1.7107356,0.5368717,0.7962627,-0.7228053,-0.953469,0.8254792,0.67665386,-0.12772238,0.20341808,0.5322651,0.22706892,0.2882846,-0.6881333,1.1187356,0.5129819,0.23028497,-0.13813256,-2.2194684,1.1293873,-0.72110826,1.2562759,0.28343514,-0.8659189,-1.4694316,0.261607,-0.2776768,-0.6190867,1.8975556,-0.4701358,1.2467682,-0.17151403,0.1200553,0.6837003,0.05062925,1.6006165,-0.46192306,0.31077844,-0.71533436,-0.51167357,1.7414461,-0.7607072,-0.6860933,-0.9481498,0.09850052,0.48146763,0.7816506,2.3383808,-0.08487697,-0.46659976,0.16742279,0.24860492,-1.7101622,-0.90434706,1.5870799,-0.7376019,-1.2891275,-1.2540287,0.51065546,0.061211817,0.4494417,-1.0848439,0.042201985,1.278722,0.76143396,0.09939585,-0.5157878,-1.570474,1.1957748,0.6836312,-1.2415528,-0.17292309,-0.091525555,1.3728174,1.1946961,-1.0775717,2.904263,-0.60083777,1.6151407,-0.69873875,-0.0060923533,-1.2390939,0.6446973,-0.39519086,1.2239189,-0.47553995,2.004553,-0.89384335,0.31493953,-1.1078062,-0.6733497,-0.3211902,-1.6806065,-0.108341,0.21833919,-0.43444616,1.7830232,0.5528327,-0.2117562,0.8298657
circulation,0.09359338,-0.43329844,-0.25941932,0.85064185,-0.7643982,-0.7000173,-1.5569361,0.8473168,-0.9907453,-0.99662405,-0.33301273,-0.8521628,-0.1923034,0.095814586,1.2971122,0.28901386,0.054060154,1.520581,0.94656,0.21083245,0.51157504,1.77865,1.2618002,1.0839047,1.4835423,-0.15756536,-0.7482931,-0.37694073,0.014453325,-0.7942878,1.0618116,-0.3516194,-0.12791637,1.0957652,-0.045213792,1.3640921,-1.1332964,-0.14575112,0.25191188,-0.3685828,-0.76738006,-0.19004168,0.6783968,0.060627654,0.53855616,0.3318528,-0.5120735,1.1676097,-0.04157811,-0.7172101,-0.5769379,0.10302811,-0.59956056,-0.25571468,0.94959855,0.30276385,-0.1135119,0.17663279,1.0265048,-0.29269546,0.62525904,-2.004312,-0.3199161,0.055780128,1.4994892,-0.72540313,0.79485595,-1.320465,1.5064436,0.7874614,-1.9287548,-0.3654379,0.36921483,0.38966146,-0.63306737,1.6462275,2.477637,-0.20334472,0.32405874,2.080068,0.19092393,1.5030138,0.9245685,0.23769376,-1.0844696,0.7196254,0.13244696,0.21453847,-0.07644376,-0.64039886,1.3192264,1.2067845,0.64042634,-1.0344576,-0.12156215,0.788892,-0.4759,0.2102692,0.36253116,0.022296337
map,-1.4587884,0.5847669,-0.20428073,0.06521201,0.6009735,-0.24488962,0.97953016,1.3081697,1.1576617,-0.7646151,-0.20788991,1.1069851,1.0042343,0.33285058,-0.60420597,0.73795724,-0.119016185,1.5224696,0.72455883,-0.9965138,0.34396288,1.8769826,0.45027575,-1.1557984,1.5022975,-0.62224907,-0.292283,-0.28039256,0.65112394,-0.9089669,0.7468006,-0.8412453,1.0464257,-0.6097884,0.052402135,0.22253981,3.4732547,0.7653371,-0.5522955,-0.93823296,1.2397542,-1.6164265,-0.17211385,-0.8012744,0.11760994,-1.6181784,0.28672445,0.7031585,0.7912778,1.3908366,1.0855081,-1.6631664,0.043797355,0.2739374,0.9473963,-1.7578207,0.26721817,-0.9551568,1.2936686,-1.3043652,-1.3993142,0.62588525,0.02683766,-2.5660064,0.26877347,0.32543895,-0.7146351,0.3976809,0.3021693,0.6846122,-0.53279823,0.8296026,1.4805869,-0.7849015,-0.32497153,0.6135939,1.8282732,-0.074166715,-0.062577866,-0.43144873,-0.15020709,-0.047651123,-0.18685794,0.9795903,1.0475779,-1.3477718,1.2171841,0.19669546,-0.89196575,0.50843644,-0.6990995,0.0055116746,0.42516902,-1.7878982,1.413606,-0.5423918,1.0432729,-0.4146681,0.45312577,-1.2087948
visitor,1.0676258,-0.7259954,1.4206803,-0.5428427,-0.58334213,-0.07315209,-0.78417766,1.4150511,0.42768633,0.84349084,0.15655376,0.6186345,-0.5290252,-0.81246203,2.568653,-1.6382805,0.15113571,0.10743402,0.8632868,0.24192369,-0.062177625,0.512707,-0.6159495,-0.31006464,1.148115,-1.1747841,1.0386841,-0.13544825,0.9605028,0.0746337,-0.8886949,-0.045673735,-0.6444079,1.0746821,-0.9946196,1.0761365,-0.80905855,-0.39996144,-0.8317365,-0.80233693,0.33336884,-1.0842196,-0.36544845,0.11016227,0.9229503,0.5578809,0.4141846,1.6040628,1.5084579,-0.31342974,1.2585441,-0.9591279,-0.62120783,-1.4086328,1.1597433,-0.96667475,-0.6813303,-0.13459957,0.1531824,-0.4255566,0.689096,-1.0120078,0.2873276,0.22165696,0.22364034,-0.37625757,0.6464418,-0.55587864,0.5810583,0.8283136,-1.395512,-0.17306861,0.3266981,-1.6353682,0.782259,-0.15539338,1.2312425,1.1977026,-0.8005472,0.08535791,-0.7370213,1.2111627,-0.7717388,0.043168463,-0.07390812,-0.19045556,1.3196865,1.0023055,-1.7394613,2.1601956,0.32731372,-0.38705546,0.29659045,-0.9905391,0.106641434,-1.5999889,-0.4782778,-0.10969748,-0.38857344,-0.6982449
electric,0.34913075,0.6671198,0.021150425,-0.17968193,0.96792126,0.8094936,0.22462511,2.1315243,1.0658945,1.7997354,1.1236912,0.077053815,0.76909673,-1.1520362,0.9071476,-0.80427456,0.102065496,0.65166354,-0.23522286,-0.6460513,0.67367935,1.2315273,-0.54824126,-0.5335645,1.3493841,0.4698596,0.7308156,-0.003678348,1.9264303,1.6340208,-0.94217384,0.1779938,0.66422224,0.58838415,0.92149794,-0.023910869,0.37882888,-2.3777819,1.4303628,1.1129718,0.076512024,0.48148802,-0.6004212,-1.3754416,1.1568305,0.3442475,-0.48735777,1.3654349,-1.0202377,0.9252452,0.34152278,-0.747966,-1.4702643,-1.833144,1.2241966,-1.1743528,-0.78421336,-0.7183993,0.18044904,0.21893828,-0.9675735,-0.17056736,0.3555301,-0.67046076,0.8381892,-1.0367038,0.41097346,-0.30493084,-1.0418742,-0.6332149,-0.46197283,-0.26560023,0.21555641,-0.373123,0.64866006,0.4792612,0.1136168,0.8213728,-0.99733186,1.3218983,0.19926439,-0.21167293,0.61887175,-1.0082335,0.105820216,-1.0124438,-1.4254456,1.0187248,-0.40311942,-0.8815167,-1.2333546,-2.0891802,1.7350516,-0.9591537,0.62531817,-0.5387679,-0.6396389,0.0429867,-0.79992914,0.704041
vehicle,0.9412559,-0.6167497,1.4367702,0.2562235,1.6795985,-0.22471975,1.1184521,2.1335676,0.72015744,1.266164,-0.23931669,-0.48112276,-0.63865715,-1.9504868,1.3194503,1.1476663,-0.71142435,1.150312,-1.2336894,0.23555501,-0.9104169,0.2591183,1.8279154,0.42252505,0.094515145,-0.112599835,-1.2881407,-0.85691005,-0.097667255,0.28176886,-0.65092856,-2.6158366,0.43997562,-0.061963893,-1.1278989,-0.9720432,0.37984052,0.034435537,0.49737644,0.25813103,0.88923496,0.80278945,0.9194389,-1.7814629,0.80074644,0.8707261,-0.45916384,0.53334475,-0.88442904,0.23944338,1.1071074,-1.1520332,-0.5011124,0.4011004,0.34577346,0.016539209,0.8290813,0.4553182,0.89056814,-0.4034873,-0.19818315,0.0034648785,0.5001692,0.2209277,0.49298552,-0.45194703,1.8502451,0.8139493,1.1885077,-2.2120836,0.23594625,0.91328347,0.20893213,-0.37310603,1.6658719,-1.3442018,0.6051553,-0.40889597,-0.5155047,0.5417867,-0.66395044,-0.3064712,0.88862705,-1.3849841,-0.5751984,0.19975966,-1.1209388,-1.1934465,0.76342803,-0.4421923,0.012813274,0.50213695,0.72562987,0.6282794,0.5454341,0.9436371,-0.42625746,-0.865611,-0.16755591,-0.22053875
escondido,2.3763137,-0.6883442,-1.2815056,0.8599713,-0.35485035,0.10035987,0.09499714,2.0252051,0.60537255,-0.16939956,-0.23824677,0.99279684,-0.5780872,0.60163176,1.9271392,1.0679232,-0.7071807,1.963948,-0.17874695,0.042097736,0.043684505,-0.86992544,-0.20796797,2.4555728,0.70306873,-0.36310554,-0.35542274,0.94973785,-0.072416775,-0.43908578,0.06693873,-0.467721,-0.3505168,-1.1487851,-1.0120262,-0.08162451,1.3735987,-0.62442064,0.83617216,0.73500663,1.3097471,-2.6874053,0.81505215,0.020726541,-0.032859515,-1.1910282,1.002934,0.07106138,0.8191615,1.223449,0.8415202,1.5938138,-0.36916423,0.3142433,1.2902884,-0.5087981,-0.32804388,0.70439506,0.44313425,-0.8898511,-1.23677,0.52955556,-0.502478,0.26237214,-0.9252317,-1.6601514,2.0268905,-0.4792503,-0.41778037,0.8786071,-0.124254525,-1.2368071,0.9722743,0.53099734,-0.2841726,-0.62718457,1.222389,0.48759627,0.42870215,2.2121165,0.25487095,-0.78040576,-0.26487648,0.0849447,0.5657267,0.9959765,0.58865577,-0.73129994,0.3499044,0.55378217,-1.4983362,0.2953319,-0.2818637,0.60495013,0.39230734,-0.48489824,-0.90356874,-0.80370736,0.7540816,0.180931
village,-0.13903216,-1.15183,-1.7095113,0.52815425,-0.7987863,0.21820588,-0.7165659,1.0696094,0.84537923,0.24407823,0.76432544,0.07407376,1.5902613,-0.086936586,0.19155516,0.9658077,-0.051109795,1.751328,-0.550792,-1.0876391,-0.71452564,0.25288185,-2.2426708,-0.49404636,0.3813871,-0.1609413,-0.05547647,-1.5144558,0.21944621,-0.8055298,0.006373864,1.0924287,-0.68871063,0.52935594,1.0329188,-0.15843081,1.1810745,0.6629337,-1.3017076,0.6686927,1.005041,-1.101981,-1.0020107,-1.0690782,0.90644467,-0.05703352,0.3884459,0.8153176,0.027779013,0.37412733,1.3936408,-0.06426363,0.14679328,0.15730256,2.095744,0.028765494,0.46292385,0.5812169,-0.599899,-0.027685134,-0.6833884,-0.030234335,0.29010665,0.46339574,-0.7072879,0.11977975,2.5956476,1.2258794,0.6295112,-0.4745503,-0.70324713,-0.7941946,1.3168712,2.233584,0.92593986,-0.22643079,-0.42809325,0.2217256,0.674763,0.73318267,-0.87932324,0.8602821,-0.48344517,-0.86398697,-1.190803,1.4029443,-2.0141594,-1.4384904,-0.4775083,-0.33875436,-0.33729753,0.19602071,-0.44079888,-0.61154944,-0.31628376,0.07503772,-0.24908032,2.4567952,0.10966751,0.51459974
construction,0.73741376,-1.7915684,0.023986336,0.30557165,0.21737228,-0.69929993,1.8289278,2.0641022,-0.71257126,-0.84886324,-0.35995424,-1.4927653,1.1139641,0.2798702,1.7582262,-0.6195656,-0.47824144,0.9160848,-0.9023633,-0.78177446,-1.4127481,-0.4590233,-0.035203278,-0.3027021,1.9465944,1.3641185,-0.31488353,0.08218961,-0.21299899,-0.106072485,-0.2586477,-0.86358863,0.18900836,0.4382844,0.5490557,1.3013705,0.74695146,-1.2785506,-0.6774948,1.6881596,-0.008580096,-0.12835395,1.258299,-0.14111277,-0.874765,0.29546887,0.42550075,1.4763997,-1.1855782,1.6261046,0.9574093,0.9995957,0.05837939,0.7896232,1.6156305,-0.25472873,0.35984647,0.74121094,0.38753936,0.28545192,0.8287362,-0.7727331,0.60908973,-0.13687685,1.1605394,-0.5079011,-0.9845535,-0.56271166,-0.43847215,1.3084971,-0.90372103,-1.3350073,0.7141815,1.0613786,-0.31140873,-1.7784244,1.7385828,0.4177132,0.94290006,1.2378851,0.61924297,0.24248424,0.58063364,0.28758723,-1.1206048,0.18934007,0.18536851,-1.2292477,0.45409432,-0.39988434,1.8592623,2.030012,0.07391176,-1.1819085,0.19848053,0.6122622,-1.1659234,1.5523392,0.26988944,1.3767161
phd,0.23718725,0.2752065,0.72637147,-0.049747225,-0.34453428,-0.906356,0.46147385,-0.66789246,0.55430186,-0.17149417,0.22473712,-0.9106839,1.696371,1.0640427,1.1972257,1.674002,-0.14627671,0.55991536,-0.62616336,0.47437412,-0.3260352,0.7329769,0.99267894,-0.2845154,0.6716171,0.76614577,-0.059698775,-0.8821538,0.3268989,0.898408,-1.3857633,0.98853934,-0.75398123,0.68237966,0.7190271,1.7300832,-1.8254837,0.009366041,-0.58185744,1.2606217,-0.3750657,-0.44372562,-0.18464926,-0.67056054,0.895282,-2.7111347,0.12359727,-1.367843,-1.6253291,1.7203902,0.8252777,-1.1189996,0.6763337,-0.5425023,-1.0356357,0.58494794,1.2848558,1.1344166,-0.9794779,-0.19020486,2.4378793,0.990766,0.24859998,0.36528355,-0.92305356,1.7004108,1.3139777,0.31400704,1.6493816,0.9927959,-0.11053652,-0.24626136,-0.32207873,-0.4910495,-1.3327179,0.6432253,-0.76113224,0.07191411,-0.23372489,-1.5791168,1.2742852,0.44598415,-0.085627235,0.36921063,0.16464604,0.006720131,0.6333795,0.19956367,0.6033074,-0.5043385,-1.185859,0.67362165,-0.7749493,-0.3173838,-0.24776132,-0.7537621,0.66110295,0.7869176,-1.6036752,-1.3725822
science,-2.0549002,-1.7327498,-0.9105977,3.5127401,-0.5418711,-0.8178123,0.8049766,0.5045677,1.9244878,-1.0924245,0.4731717,0.29397762,-0.27642435,3.045801,0.37747717,0.82626027,0.6037159,0.15552026,-0.8689349,-0.6952258,-1.5935826,-0.7139701,-0.5255566,-0.1538366,-0.41987398,-1.2332443,2.3876188,0.7832713,0.85419196,-0.6386517,-0.51693135,0.5756747,-0.4174808,-0.5070514,0.44898757,1.0427253,-0.43682647,-0.6907642,-0.2847633,1.1770589,-0.5884036,-1.8114785,-1.481753,1.0673366,1.0137172,0.1822941,0.15134083,-0.5297639,-1.7221286,-0.013319629,-0.43519935,1.446045,-0.99335533,2.4173937,0.36688754,-0.93995315,0.7075522,-0.6010398,0.7172147,2.0632553,0.12892576,-1.3997995,-1.703437,2.993733,0.47941908,-0.5565147,0.28279588,0.89269835,-0.72147757,0.49771222,-0.037732787,0.5803818,0.8603381,-0.4678237,-1.1418653,0.30579525,2.0037413,1.4127705,1.4789793,0.39183345,-0.5784861,-1.4929978,-0.97460234,-1.5289091,-1.1865693,0.7252546,0.5654101,-0.08371262,0.66804457,-0.057391275,0.73446214,0.28591514,0.78353494,0.4465036,0.08220028,-0.02321799,0.67421705,0.86730325,-0.9941077,-0.19266456
overseas,-0.6037852,-0.26555887,0.5735306,1.6347643,1.3653088,0.8893614,-0.31205565,1.1345875,-1.5743926,1.0738101,-0.23059821,0.9958351,-0.6117216,-0.6942278,-0.4285074,0.33657646,-1.0470611,1.9583119,0.37711757,-1.3296753,-0.021658015,0.023635268,-0.3623305,0.38989645,-0.15543944,1.2179257,-0.17963894,0.010721247,-0.13819836,-0.3375283,-0.69577396,-0.4658307,-2.3854306,-0.24513301,-0.10428764,0.64427066,1.5466744,-0.2153891,-1.5725689,0.39375794,-0.073406085,-0.42407936,0.021708926,-0.52180845,0.5617602,-0.28857905,0.7089905,-0.30321375,-0.772334,-1.0233302,-0.2917698,0.42911142,0.6014205,0.9818591,-0.158734,1.0168732,0.8608599,-0.8386007,-0.83241963,-1.7958207,0.88832104,0.5141446,0.43990454,-0.8589212,-0.5915385,-1.135295,-0.62146467,0.45371398,0.3101279,0.27228752,-0.56023365,-1.5825465,-0.65137404,-0.3198674,-1.3314792,-0.62425387,1.0134422,-0.53116417,-1.6254855,0.5378109,-0.45534295,2.0187616,-0.59711456,-0.03501819,-2.4684823,0.70478094,1.3440828,0.32874534,0.43370256,-0.54078734,-1.8806254,-1.8388581,0.30724394,-0.74633074,0.7792288,-0.12657838,-0.029968496,1.7719967,0.7447248,0.061778802
studies,0.07805239,1.7127937,0.14685114,1.1559232,1.5313803,0.18463664,0.21103445,0.66905504,-0.56011444,1.867103,0.993695,0.69464594,-0.16232206,0.5538396,0.45625773,-0.30617255,-1.3960731,0.33408204,-0.8706879,1.3739015,-0.1949818,-0.13292685,-0.76529425,0.010481253,0.38614333,-0.81224054,0.6294957,-1.8289706,2.0805945,-0.57447124,0.27348316,0.13508235,-1.2324808,-3.3100502,-0.45318103,-0.5116768,1.2559613,0.81883687,-1.1932659,0.2869429,-0.8532922,0.4675589,-0.97981024,0.12175237,-0.18423542,0.81619024,-0.33993238,-0.44333148,-0.37252188,0.5331941,1.4122566,1.8740139,0.15368924,-0.4094499,0.24124126,0.4039265,0.43863675,-0.4409201,0.73979235,-0.018536167,1.0134356,0.8329351,-0.15265368,-0.3001321,-2.1134467,0.9419869,-2.5163157,0.33835515,-0.38569602,-0.95095,1.4921868,-0.65131694,0.19143458,-0.871594,0.092744425,-0.18052654,0.18799363,-1.249955,-0.28015298,0.8124706,0.2117231,0.13233349,-0.6402745,-0.2127032,-1.5848858,0.7463038,-0.67832637,1.1679641,0.7070146,-0.42224923,-0.19680066,1.0745145,0.159699,-1.7241503,-0.63336253,1.4971616,-1.736054,0.0045113503,0.20601508,1.098225
bing,-0.23078087,1.658103,0.018099155,-0.47715372,-0.06482179,-1.0410845,-1.4351059,1.009024,1.3897793,-1.3868115,-1.6677867,1.1976904,-0.08503761,-1.3066605,-1.6063663,-0.7078244,1.103251,0.97351617,0.043098167,-1.069349,-0.7050513,0.86739194,-0.7154459,1.7019702,-1.823909,1.6160764,0.109324075,0.71359605,0.60787165,0.7525792,-0.47897103,-0.045622922,-0.4899692,0.5301791,0.978369,0.52915597,1.7877611,-0.67581475,-1.3357432,0.51880497,1.7783178,0.89523137,-1.297494,0.96267974,0.021524545,-0.37886575,-0.7432112,-0.75891834,0.93424964,-0.122026056,-1.2115082,-0.8566308,1.3433803,0.31526592,-0.21513887,-0.5336668,0.5638024,0.077402376,-1.7519422,-0.0227396,-0.74898136,1.730902,-0.6389573,-0.1793125,-1.8427953,-0.3003687,-2.0269668,0.09354759,-0.6426002,-1.3359501,0.37446132,0.4704786,0.14048125,-0.98209304,-1.2851783,-0.25576597,1.1574968,1.6084607,-0.15447947,-1.6482704,0.37626317,1.7112552,-0.79917604,-1.1253903,-1.9944474,0.935851,2.1178346,-1.9826262,-1.9112902,-0.7362228,0.63203603,-0.87387496,-0.4231255,1.6151563,0.12398947,1.6434784,-0.44080243,1.2794696,0.8507436,0.42536926
director,-0.6671133,1.4621357,-1.0902058,1.516228,-0.2932505,-0.43630067,1.2767423,0.4824802,0.70374143,0.9423678,-0.7022767,-0.19150247,-0.18560782,-0.06875427,-0.103971325,0.6972615,-1.064623,1.3399067,-0.082604244,-1.0544056,0.3573213,0.41857195,-0.06305148,-1.2703563,-0.6068947,-0.15443878,-0.033989202,-0.27674574,-0.20755789,0.011016122,-0.1969172,1.3025736,0.14508179,0.4038071,-2.0350473,0.52574646,-0.22655328,1.3412902,-1.6501914,0.20909339,0.3215202,-0.7913494,1.2331102,-0.69182116,-0.46305296,-0.6343134,1.5229824,-0.52759016,-0.50177306,-0.050660856,-0.9462422,1.7478143,1.2667497,-0.35065645,-1.0452198,0.4872524,-1.0705711,0.58818483,0.5221022,0.46351105,0.6041844,0.14887296,0.8713818,-0.5439578,-0.29639512,-1.4560388,0.27841303,-0.13611315,0.6416829,-0.8432221,-0.12405048,-0.61294687,-1.025668,0.35172114,-0.44510975,0.89429295,1.0744157,-0.36014244,0.029358992,-0.40399048,0.102343366,-0.57162553,0.14886767,0.45562062,0.028541476,0.673583,0.6724241,-0.6812486,0.1909294,-0.61125726,-0.35671383,-0.61047757,-0.58644325,-0.75373256,-1.4841964,0.706772,-0.1782379,-1.2168713,0.6290862,0.6925598
australia,-0.058641993,1.186579,-0.3227252,-0.49229357,-0.12862152,0.18263303,0.036330055,-0.80512714,0.31955242,-0.48826516,0.16764544,0.10635166,0.660834,0.9439572,-1.6233428,-0.2433178,0.104206294,-0.8374697,-0.34993517,-0.18818332,0.15894857,-0.84879714,1.4313827,0.3259258,-2.3847225,1.0113256,-0.7642769,0.7776079,-1.1502322,-0.41150084,-1.2818382,-0.5303362,-2.987955,0.47460818,-0.71171093,0.90400183,-0.76484466,-0.46558046,0.34998387,-1.0418072,0.72797793,0.98661274,-0.61090153,1.6653225,-0.7297888,-1.044571,-1.3731016,-0.58915025,-1.6446255,1.0530043,0.076335974,-0.07002593,-1.2025115,-1.0574226,-0.6886851,-0.21554963,0.34350118,-0.10894089,-0.10089022,-0.9979549,0.41161025,0.7270004,1.9187869,-0.85699,0.068593666,-2.2000751,-0.04480885,1.3064789,0.27674013,-1.285651,-1.5059257,0.1819373,-0.13415389,0.30813792,-0.03013821,0.82792604,0.551975,-0.050824884,-1.4929079,0.38898942,-0.9379663,1.5193776,0.5164213,1.5053267,-0.400335,0.39268255,1.7338909,2.0998216,-0.87467605,-0.1105972,-2.0582874,1.1804004,0.9213588,0.57299453,-1.7829297,1.2215555,0.14884464,-0.90501153,0.1742406,-0.7944904
beijing,0.370731,-0.19747855,-1.5277054,-1.3343396,1.6780716,-0.8333483,0.5891694,-0.9307159,0.10398166,0.7549534,-0.85142505,1.4360137,-0.481856,0.1564618,-0.81877315,0.19336142,0.12903363,0.32030246,-1.2186263,0.44263825,1.5740999,-0.560992,-0.037472103,-0.3910016,-1.5334035,0.027918888,1.0767334,0.16913332,1.719428,0.77345717,0.43158913,0.61128175,0.20759612,1.1556292,1.0242287,0.655507,0.047456708,0.8201006,1.5936995,-1.3866932,-1.0881283,-0.4248663,-0.52319616,1.8122882,0.40968457,-1.0523064,0.15553676,-0.031488907,1.3011626,-1.891064,0.3986452,1.5208226,-0.7117141,0.1346956,0.25080237,0.063606605,0.35350654,-1.6213578,-0.006800909,-0.19504236,-1.2825661,0.08670891,-0.8431883,0.33250868,0.80483866,2.5397885,-1.3305894,-1.8221775,1.0469565,0.4996136,-0.47767532,-1.0145248,0.025980135,-0.3381839,0.47848925,0.52760273,-0.21281475,-1.1360646,0.3211107,-0.063805215,-0.84721154,-1.7190846,0.23009428,-1.5699002,-0.12810773,0.37891677,1.4042938,0.46017647,-3.1316788,-0.38197476,-0.54917717,-0.52330375,1.9705888,-1.0358918,-0.25892484,-0.4878176,-0.9778328,0.30489886,-1.249636,0.20217407
berlin,1.1758698,0.0083704945,-1.2593727,-0.05567062,-0.7082207,-1.4627341,-0.15251163,1.8292587,-0.09865046,-1.3769811,-0.4136635,-0.15144655,-0.13790666,-1.4045213,0.7764544,1.1243259,-0.6035591,-1.7880509,-0.5160947,0.08314429,-1.7220329,-0.33861142,-0.6928046,-1.3705432,-0.31233367,1.0000033,-1.4722952,1.5775259,0.25225332,0.5885089,0.112692446,-1.0010148,-0.6175422,0.026071012,-0.54713786,1.6329892,-0.6208045,1.1611269,-1.0163242,-0.118225,-1.7142338,-0.66213053,-0.6553873,1.2028315,-0.16883205,-0.700299,0.309323,-0.7684862,-0.3312181,-1.7829345,0.6524501,0.59394234,-0.21652792,-0.065138616,-0.6294651,0.36966783,-0.62509066,0.8465394,1.4229078,-0.43076307,0.1007441,0.115580864,0.5285639,0.06277274,0.84236866,-2.4389398,-0.79691434,-0.04722007,0.9824994,1.3143176,-0.314138,0.020159034,0.6454398,-0.12738748,1.1981086,-1.0115168,-2.2788439,-0.8110183,-0.36671534,-0.4635923,1.2814478,2.609737,-0.8722345,1.0452656,0.76547503,0.37589246,1.2325952,0.58027935,-1.8467102,0.6955923,0.56723547,-0.49516875,0.45763686,1.5445975,-0.13300921,-0.018159669,-0.91408277,-0.39248356,-1.8602357,-1.0439622
cape,0.15206805,0.37991083,-0.5304659,-0.30496284,0.71798265,-1.2438489,-0.6417634,0.5149008,1.7866762,1.4871348,-0.8218684,-0.73561424,1.7683269,0.27046388,0.22697604,0.52784795,-0.55988896,-0.016277608,-0.54742426,-1.2616622,0.45107183,-0.081155,-1.8912098,-1.104731,-0.7009991,1.0346335,0.33280924,1.1179744,0.46981597,0.78000623,0.82737654,0.91279453,-1.9576879,0.2115866,0.36132538,0.007638023,1.2764099,-1.781134,0.63906133,-0.8025725,-0.48876065,0.6692355,-1.8662218,0.17810978,-0.11727506,-1.8777766,-0.4532557,-0.34326366,-0.27577302,-0.486965,1.379431,-2.0819669,-0.7816788,-0.26621005,-0.5773613,-1.009794,0.04237675,-0.6871471,-0.4110029,-1.213207,1.5541327,-0.15585211,2.162952,-1.5417178,0.6534786,-0.06382612,-0.17616639,-0.56590044,0.57454306,-0.008191714,-0.35673657,2.2817974,0.025980545,0.5680387,-0.11634767,0.8840834,0.33436942,1.3766687,-0.5388906,-1.1170208,0.43507752,0.6616228,0.24144539,-1.2997743,0.9909822,-2.0096548,1.1005368,0.45332986,0.14828484,-1.7358503,0.0066702594,-0.18715097,0.038945764,-0.84453976,0.06092385,-0.23205861,0.45035166,0.6548615,0.13461515,0.6401269
town,-0.7495605,0.37210035,-0.10467051,0.05546694,-0.036658786,-0.13106656,0.51040524,0.2417239,1.6871897,-0.51604754,-0.8246535,0.92132723,-0.5181333,2.13721,0.28419653,1.1975385,-0.8865128,-1.1490237,-0.9115829,-0.00073289196,-1.3038284,0.028681777,-0.36725464,0.845156,1.9317011,0.5740652,-0.12266318,-0.57291436,0.8960283,0.5211368,-2.3228903,0.44126365,0.010384271,-1.0657364,1.2160307,-0.8795989,0.8854669,0.3969167,-0.10029996,0.32760772,-0.13139322,0.78691554,-1.4436613,0.25389773,-0.45008665,1.512785,2.1902597,-0.10376837,-1.6091601,-0.6678866,-1.0341923,-0.7538583,0.3257121,0.7481816,-0.8599819,0.36627948,-0.5482719,-0.44814125,-0.21510655,-2.7673037,0.2860891,-0.098892756,1.9222869,-0.7531992,0.06511231,-0.39653683,-2.5709422,0.86494094,1.2617188,-0.56210506,1.190749,-0.17151873,0.6401045,-0.25738913,1.266983,-0.6004761,-1.569643,-0.022785459,-0.6267388,0.9628579,-0.44799757,0.4341512,-1.812712,-0.075739704,-2.4074588,-0.9939653,-0.8811106,0.9948314,-1.5847553,0.37630013,-0.07785842,2.8264835,-0.54264474,-0.30611467,0.94642943,0.36948848,0.49027586,-0.13471161,0.24242589,-1.2738303
florence,0.45881474,1.4305936,0.20775609,-0.29570627,0.09721322,-0.35828468,1.3690302,0.19011584,0.051680632,-0.28920445,0.062876344,-0.57791257,-1.6046106,0.3932946,0.43859822,-0.30769503,1.4342383,-1.2852114,-0.5753811,-0.1333579,-0.5332984,0.0096906405,-0.9000799,1.0912157,1.0343552,-0.44864857,-0.29252532,0.37361518,-1.2170157,0.16743354,0.8075725,0.79239845,0.82335985,0.33673567,-0.33375585,1.9827446,0.62691396,1.0644284,0.638916,0.22643757,-1.1876138,-0.2020135,0.04834527,1.3355352,0.33777562,-0.35524848,0.121763065,-0.7493548,-0.14511354,-0.8212937,2.170373,-0.3853318,0.12196742,-0.69127154,0.009434597,-0.5931724,0.099237666,-1.2930249,-2.1087148,0.15440041,0.27560878,0.75273657,1.9863102,-0.5688402,0.54952586,-0.6386145,-1.8609247,-2.7159379,0.28165877,-1.9681473,1.4085814,-0.3892589,-1.7378142,-0.54792756,1.0856621,-0.9871672,-0.5388235,0.9230906,0.12523659,-0.9471867,-1.1229451,-1.4479439,-0.23553619,-0.45857033,-2.2789574,-0.16366561,1.2809147,1.5528308,-0.03276552,-0.66412437,1.6705084,-0.65704775,1.5578123,1.4154304,1.1673706,0.5704456,-0.07168398,-0.52941006,-0.96536005,-0.4317187
